/* Generated by Edge Impulse
 *
 * Permission is hereby granted, free of charge, to any person obtaining a copy
 * of this software and associated documentation files (the "Software"), to deal
 * in the Software without restriction, including without limitation the rights
 * to use, copy, modify, merge, publish, distribute, sublicense, and/or sell
 * copies of the Software, and to permit persons to whom the Software is
 * furnished to do so, subject to the following conditions:
 *
 * The above copyright notice and this permission notice shall be included in
 * all copies or substantial portions of the Software.
 *
 * THE SOFTWARE IS PROVIDED "AS IS", WITHOUT WARRANTY OF ANY KIND, EXPRESS OR
 * IMPLIED, INCLUDING BUT NOT LIMITED TO THE WARRANTIES OF MERCHANTABILITY,
 * FITNESS FOR A PARTICULAR PURPOSE AND NONINFRINGEMENT. IN NO EVENT SHALL THE
 * AUTHORS OR COPYRIGHT HOLDERS BE LIABLE FOR ANY CLAIM, DAMAGES OR OTHER
 * LIABILITY, WHETHER IN AN ACTION OF CONTRACT, TORT OR OTHERWISE, ARISING FROM,
 * OUT OF OR IN CONNECTION WITH THE SOFTWARE OR THE USE OR OTHER DEALINGS IN THE
 * SOFTWARE.
 */
// Generated on: 30.01.2024 04:09:07

#include <stdio.h>
#include <stdlib.h>
#include "edge-impulse-sdk/tensorflow/lite/c/builtin_op_data.h"
#include "edge-impulse-sdk/tensorflow/lite/c/common.h"
#include "edge-impulse-sdk/tensorflow/lite/micro/micro_mutable_op_resolver.h"
#include "edge-impulse-sdk/porting/ei_classifier_porting.h"

#if EI_CLASSIFIER_PRINT_STATE
#if defined(__cplusplus) && EI_C_LINKAGE == 1
extern "C" {
    extern void ei_printf(const char *format, ...);
}
#else
extern void ei_printf(const char *format, ...);
#endif
#endif

#if defined __GNUC__
#define ALIGN(X) __attribute__((aligned(X)))
#elif defined _MSC_VER
#define ALIGN(X) __declspec(align(X))
#elif defined __TASKING__
#define ALIGN(X) __align(X)
#elif defined __ICCARM__
#define ALIGN(x) __attribute__((aligned(x)))
#endif

#ifndef EI_MAX_SCRATCH_BUFFER_COUNT
#ifndef CONFIG_IDF_TARGET_ESP32S3
#define EI_MAX_SCRATCH_BUFFER_COUNT 4
#else
#define EI_MAX_SCRATCH_BUFFER_COUNT 4
#endif // CONFIG_IDF_TARGET_ESP32S3
#endif // EI_MAX_SCRATCH_BUFFER_COUNT

#ifndef EI_MAX_OVERFLOW_BUFFER_COUNT
#define EI_MAX_OVERFLOW_BUFFER_COUNT 10
#endif // EI_MAX_OVERFLOW_BUFFER_COUNT

using namespace tflite;
using namespace tflite::ops;
using namespace tflite::ops::micro;

namespace {

#if defined(EI_CLASSIFIER_ALLOCATION_STATIC_HIMAX) || defined(EI_CLASSIFIER_ALLOCATION_STATIC_HIMAX_GNU)
constexpr int kTensorArenaSize = 2304;
#else
constexpr int kTensorArenaSize = 1280;
#endif

#if defined(EI_CLASSIFIER_ALLOCATION_STATIC)
uint8_t tensor_arena[kTensorArenaSize] ALIGN(16);
#elif defined(EI_CLASSIFIER_ALLOCATION_STATIC_HIMAX)
#pragma Bss(".tensor_arena")
uint8_t tensor_arena[kTensorArenaSize] ALIGN(16);
#pragma Bss()
#elif defined(EI_CLASSIFIER_ALLOCATION_STATIC_HIMAX_GNU)
uint8_t tensor_arena[kTensorArenaSize] ALIGN(16) __attribute__((section(".tensor_arena")));
#else
#define EI_CLASSIFIER_ALLOCATION_HEAP 1
uint8_t* tensor_arena = NULL;
#endif

static uint8_t* tensor_boundary;
static uint8_t* current_location;

template <int SZ, class T> struct TfArray {
  int sz; T elem[SZ];
};

enum used_operators_e {
  OP_FULLY_CONNECTED, OP_SOFTMAX,  OP_LAST
};

struct TensorInfo_t { // subset of TfLiteTensor used for initialization from constant memory
  TfLiteAllocationType allocation_type;
  void* data;
  TfLiteIntArray* dims;
  size_t bytes;
};

typedef struct {
  TfLiteTensor tensor;
  int16_t index;
} TfLiteTensorWithIndex;

typedef struct {
  TfLiteEvalTensor tensor;
  int16_t index;
} TfLiteEvalTensorWithIndex;

TfLiteContext ctx{};
static const int MAX_TFL_TENSOR_COUNT = 4;
static TfLiteTensorWithIndex tflTensors[MAX_TFL_TENSOR_COUNT];
static const int MAX_TFL_EVAL_COUNT = 4;
static TfLiteEvalTensorWithIndex tflEvalTensors[MAX_TFL_EVAL_COUNT];
TfLiteRegistration registrations[OP_LAST];

namespace g0 {
const TfArray<2, int> tensor_dimension0 = { 2, { 1,185 } };
const ALIGN(16) float tensor_data1[64] = { -0.38052016496658325, 0.65508508682250977, -1.8027993440628052, -0.27054232358932495, -0.044846706092357635, -1.2434961795806885, -1.1016665697097778, 0.3811587393283844, -0.10936658084392548, -0.31315875053405762, 0.01936018280684948, 0.96287304162979126, 1.544145941734314, 0.082130633294582367, 2.6357004642486572, -1.2563192844390869, -0.34071356058120728, 0.76313859224319458, 0.61055010557174683, -0.17431750893592834, 0.14185036718845367, -1.0227797031402588, -0.88922631740570068, 0.98243653774261475, -0.0071670878678560257, -0.027145477011799812, -0.016390359029173851, 1.8102878332138062, -0.089851878583431244, -0.18238770961761475, -0.47303622961044312, 0.22691774368286133, -1.7343298196792603, 0.7759394645690918, -1.2161523103713989, -1.2377157211303711, 0.28150045871734619, -0.67485231161117554, -2.9055550098419189, 1.007990837097168, -0.92484837770462036, -0.80249017477035522, -0.34307330846786499, -0.22699788212776184, 0.59226280450820923, -1.1274503469467163, -1.0855088233947754, -0.50996661186218262, -1.2634340524673462, 0.90278464555740356, 0.70466625690460205, 0.60811340808868408, -0.71663951873779297, -0.76654285192489624, 0.10098391771316528, 0.32567402720451355, -1.4791204929351807, -0.83921003341674805, -1.0130082368850708, -0.76830404996871948, -0.79141294956207275, -2.2997941970825195, -0.29998531937599182, -0.089654743671417236, };
const TfArray<1, int> tensor_dimension1 = { 1, { 64 } };
const ALIGN(16) float tensor_data2[128] = { -2.6769442558288574, 0.46946677565574646, -0.36577460169792175, -0.080027587711811066, -0.42634966969490051, 0.10494659841060638, -0.84228688478469849, -0.59288394451141357, -1.2022900581359863, -0.23803186416625977, -0.12689754366874695, -1.2530779838562012, 0.99335432052612305, -0.46615138649940491, -0.18153515458106995, -1.3465967178344727, -0.22863887250423431, -1.1641445159912109, -0.65819621086120605, -0.66962122917175293, -1.369926929473877, -1.6759504079818726, -0.84639459848403931, -1.4826958179473877, 1.0111796855926514, -2.5521788597106934, -0.38089075684547424, -1.3797377347946167, -0.99020475149154663, -0.36702531576156616, -0.71993762254714966, -1.4268896579742432, -1.321220874786377, -0.67185115814208984, -0.041672956198453903, -2.2297601699829102, -2.1542270183563232, -1.7644107341766357, -2.3709385395050049, -0.4488314688205719, -1.6466798782348633, -1.2806458473205566, -0.86327028274536133, 0.74656957387924194, -1.1159793138504028, -0.85448521375656128, -1.4900957345962524, -1.3976694345474243, -2.2355458736419678, -1.4110502004623413, -1.6160603761672974, 1.2863516807556152, -0.81032657623291016, -0.42985188961029053, -0.29166346788406372, -0.32079985737800598, -0.23113518953323364, -0.32213252782821655, -1.3004307746887207, 0.74852257966995239, -1.7027401924133301, -0.77117764949798584, -1.614509105682373, -0.33443504571914673, -1.4683378934860229, -0.12621089816093445, -1.5145125389099121, -1.8144515752792358, -0.20776073634624481, 0.57446014881134033, -0.12520982325077057, -0.92917358875274658, -0.98079025745391846, -0.74787962436676025, 0.57965552806854248, 0.034392092376947403, -1.091234564781189, -0.59264302253723145, 2.2477757930755615, -0.52425611019134521, -0.5228571891784668, 0.46758943796157837, -1.0721513032913208, -1.1279970407485962, 0.05674116313457489, 1.6943701505661011, -1.7240700721740723, 0.21946653723716736, 0.011770622804760933, 0.79175549745559692, -1.024048924446106, -0.59855484962463379, -0.52405321598052979, -0.10459209233522415, 0.8558540940284729, -0.26803252100944519, -1.2738837003707886, -1.8480417728424072, -0.47218281030654907, -0.10235805809497833, -0.47335141897201538, -1.2018907070159912, -0.57292395830154419, -1.1506686210632324, -0.23527239263057709, 1.5553171634674072, -1.945281982421875, -0.63420116901397705, -1.1945323944091797, 2.0099105834960938, -0.86367982625961304, -0.39640769362449646, -0.52643728256225586, -2.0957214832305908, -0.15503844618797302, -0.2928832471370697, -1.2783746719360352, -0.36196452379226685, -0.36747592687606812, -2.8369691371917725, 0.18955264985561371, -2.2328636646270752, -0.19676110148429871, 0.52396321296691895, -1.1783879995346069, -0.37745958566665649, -0.77727967500686646, -0.66310501098632812, };
const TfArray<1, int> tensor_dimension2 = { 1, { 128 } };
const ALIGN(16) float tensor_data3[32] = { -0.28629681468009949, -0.026723889634013176, -0.064052179455757141, 0.80764961242675781, -0.50464034080505371, -0.45413708686828613, 0.67498236894607544, 0.64807802438735962, -0.14629261195659637, -0.17910301685333252, -0.5480760931968689, -1.384874701499939, -0.027682509273290634, -0.11091868579387665, -0.51087278127670288, 0.53051108121871948, -2.0902094841003418, -0.050101801753044128, -0.11970509588718414, 0.61023211479187012, -0.048587888479232788, -0.59817796945571899, -0.029576223343610764, -0.056541182100772858, -0.049831818789243698, 0.88773375749588013, -0.037389654666185379, 0.21180376410484314, -0.30695706605911255, -0.11941833049058914, 0.24367766082286835, 0.59518903493881226, };
const TfArray<1, int> tensor_dimension3 = { 1, { 32 } };
const ALIGN(16) float tensor_data4[5] = { 1.05401611328125, -1.0196313858032227, 0.39841869473457336, -1.3097606897354126, -0.68149036169052124, };
const TfArray<1, int> tensor_dimension4 = { 1, { 5 } };
const ALIGN(16) float tensor_data5[32*185] = { 
  0.86962109804153442, -0.44226762652397156, 0.47297370433807373, 1.8212548494338989, 2.1505179405212402, 1.3203343152999878, 0.8461230993270874, 0.73166590929031372, 0.098189741373062134, 0.034516803920269012, -0.28670588135719299, -0.41249626874923706, -0.61445045471191406, -0.87333685159683228, -0.16598561406135559, -0.32535916566848755, -0.053445886820554733, 0.078402630984783173, 0.28353595733642578, 0.64380043745040894, 0.63620346784591675, 0.93140387535095215, 0.47412016987800598, 0.5340312123298645, 0.67731815576553345, 0.66805464029312134, 0.62712609767913818, 0.50359892845153809, 0.5281187891960144, 0.72485804557800293, 0.65772294998168945, 0.62799203395843506, 0.17198279500007629, -0.28854343295097351, -0.34414330124855042, -0.50093674659729004, -0.61841064691543579, -0.55314350128173828, -0.59120237827301025, -0.38238424062728882, -0.4397704005241394, -0.69150936603546143, -0.38644039630889893, -0.77830666303634644, -0.54531997442245483, -0.6550944447517395, -0.55395805835723877, -0.60000830888748169, -0.18706028163433075, -0.31337067484855652, 0.14632448554039001, -0.20848982036113739, -0.18252800405025482, -0.45888796448707581, -0.74756276607513428, -0.56251621246337891, -0.17807181179523468, -0.25351545214653015, 0.3794904351234436, 0.42662706971168518, 0.010117959231138229, -0.21262092888355255, 0.073178626596927643, 0.12846077978610992, 0.00014951074263080955, -0.70439404249191284, -0.57687842845916748, -0.017303036525845528, -0.20993295311927795, -0.92543518543243408, -0.71379035711288452, -0.6013520359992981, 0.41738966107368469, 0.48552215099334717, 0.32193329930305481, 0.35319134593009949, 0.42376598715782166, 0.25787994265556335, 0.22396679222583771, 0.48484620451927185, 0.51780200004577637, 1.0615990161895752, 0.75240832567214966, 0.08804667741060257, 0.61640161275863647, 0.21250641345977783, 0.42591607570648193, 1.0989065170288086, 0.83819162845611572, 0.56306630373001099, 0.47270891070365906, 0.57156527042388916, 0.72705036401748657, 1.0031516551971436, 1.4128676652908325, 0.38999757170677185, 0.19120210409164429, -0.34064638614654541, 0.012840692885220051, 0.057990901172161102, -0.11954757571220398, -0.6949654221534729, -0.29050478339195251, -0.52742022275924683, -1.7974510192871094, -0.36623990535736084, 0.035545285791158676, -0.52725988626480103, -0.64024609327316284, -1.8550543785095215, -1.6507790088653564, -1.7740026712417603, -2.0184075832366943, -0.95129662752151489, 0.078980602324008942, -0.68041682243347168, -0.30320441722869873, -0.20866750180721283, 0.13548684120178223, 0.13804435729980469, 0.18485978245735168, -0.20146682858467102, -0.57242172956466675, -0.67614609003067017, -0.64250695705413818, -0.80537527799606323, -1.5756536722183228, -2.218458890914917, -1.9801472425460815, -2.3480632305145264, -1.6364489793777466, -2.9125902652740479, -1.5910745859146118, 0.27737390995025635, 0.58411282300949097, 0.044945698231458664, -0.17020629346370697, 0.31427079439163208, -0.17614540457725525, 0.42901620268821716, 0.40172100067138672, 0.08334793895483017, 0.083479709923267365, -0.0039707589894533157, 0.21059489250183105, -0.39010897278785706, -0.21135340631008148, -0.94889414310455322, -1.9621025323867798, -1.0313369035720825, -1.2402492761611938, -1.6908423900604248, -2.0889511108398438, -1.9509297609329224, -1.0886611938476562, -1.065096378326416, -1.1894183158874512, -1.1529760360717773, -1.1676483154296875, -1.2534648180007935, -1.33118736743927, -0.49505287408828735, -0.90894699096679688, -0.66748487949371338, -0.5989689826965332, -0.22756953537464142, -0.64052295684814453, -0.18776480853557587, -0.68864566087722778, -0.21902753412723541, -0.41993951797485352, -0.34156361222267151, -0.75300270318984985, -0.39635682106018066, -0.43949997425079346, -0.20645621418952942, -0.42026165127754211, -0.41097810864448547, -0.27426555752754211, -0.075990423560142517, 0.15548995137214661, -0.10473443567752838, 0.098560646176338196, 0.32762649655342102, 0.39211931824684143, 
  -0.14675246179103851, -0.15540632605552673, -0.024408984929323196, 0.076034136116504669, -0.19332703948020935, 0.050103187561035156, 0.020817296579480171, -0.07445824146270752, -0.0757555291056633, -0.12347385287284851, 0.10791277885437012, -0.048777244985103607, -0.010406096465885639, 0.063384279608726501, 0.0053618443198502064, 0.057184275239706039, -0.19287526607513428, -0.05053812637925148, -0.039859894663095474, -0.10182533413171768, 0.11316602677106857, -0.18753679096698761, -0.183577761054039, 0.12752307951450348, -0.054047983139753342, -0.096999898552894592, 0.049576833844184875, -0.075253643095493317, 0.018642514944076538, 0.074516870081424713, -0.02027280256152153, 0.066536881029605865, -0.05969315767288208, 0.11558931320905685, -0.13820558786392212, -0.1974656730890274, 0.070080243051052094, -0.031172590330243111, 0.0052125891670584679, -0.15694379806518555, -0.081280142068862915, 0.088473185896873474, 0.09308711439371109, 0.016956284642219543, -0.14080223441123962, 0.060660310089588165, -0.07001969963312149, -0.14349570870399475, -0.16954798996448517, -0.20073629915714264, -0.057908829301595688, 0.037209846079349518, 0.092846982181072235, 0.050108440220355988, -0.15210013091564178, -0.0066208248026669025, -0.19913330674171448, -0.023812714964151382, -0.18678267300128937, -0.013505933806300163, -0.10878589004278183, 0.12523987889289856, 0.067730434238910675, 0.11545141786336899, -0.16781765222549438, -0.13947233557701111, 0.044098149985074997, -0.13243213295936584, 0.025176562368869781, 0.063071519136428833, 0.1495172530412674, 0.039811491966247559, 0.037389609962701797, 0.12537263333797455, 0.11096643656492233, 0.024842496961355209, -0.084483489394187927, -0.00018881620781030506, -0.025940917432308197, 0.08176799863576889, -0.17911554872989655, 0.09221823513507843, 0.014452659524977207, -0.14304658770561218, -0.18689687550067902, -0.14201915264129639, -0.10251546651124954, 0.11303205043077469, -0.20566216111183167, 0.021083327010273933, -0.033151272684335709, 0.074785009026527405, 0.11441977322101593, 0.10234403610229492, -0.21071842312812805, -0.13570091128349304, -0.19432733952999115, -0.066070184111595154, -0.075356915593147278, -0.19660188257694244, -0.1610603928565979, 0.05533527210354805, -0.1763027012348175, 0.097643464803695679, -0.10193050652742386, -0.18538014590740204, -0.099969096481800079, 0.092641003429889679, 0.069202840328216553, -0.19757995009422302, 0.04056064784526825, 0.074693158268928528, 0.033065084367990494, 0.11883839219808578, 0.037540033459663391, -0.080371402204036713, -0.017375189810991287, -0.15393781661987305, -0.043845593929290771, -0.059797566384077072, 0.044787861406803131, 0.018219798803329468, -0.18331193923950195, -0.02490299753844738, -0.23296250402927399, 0.04266839474439621, -0.066405422985553741, 0.02621067501604557, -0.032656166702508926, 0.041010502725839615, 0.0019830744713544846, 0.018379291519522667, -0.13488027453422546, -0.070419251918792725, -0.019094953313469887, -0.0058784717693924904, -0.11080047488212585, -0.21805648505687714, -0.098144158720970154, -0.21911665797233582, -0.0080938823521137238, -0.0022743130102753639, -0.10296075046062469, -0.22413681447505951, -0.19453652203083038, 0.065858960151672363, -0.018646024167537689, -0.0090232323855161667, -0.010369317606091499, -0.091043971478939056, -0.18173734843730927, -0.11362619698047638, -0.0018664278322830796, -0.11455719918012619, -0.067374743521213531, 0.01933571882545948, 0.12797641754150391, -0.079317159950733185, -0.14890134334564209, 0.044504716992378235, -0.086840853095054626, -0.16950185596942902, -0.03781452402472496, 0.12332828342914581, 0.064246684312820435, 0.067908786237239838, -0.041505869477987289, 0.12364321947097778, -0.11595229059457779, -0.10063091665506363, 0.066596485674381256, 0.0071921632625162601, 0.058338053524494171, 0.13488103449344635, 0.14041678607463837, -0.10987716913223267, 0.13677708804607391, 0.059256955981254578, -0.10292704403400421, -0.12604810297489166, 0.15709488093852997, -0.038042247295379639, 0.025966838002204895, -0.15433944761753082, -0.053143925964832306, 
  0.063667148351669312, -0.1321602463722229, -0.12445838004350662, -0.0087274536490440369, -0.0015914952382445335, 0.069892026484012604, -0.02323891781270504, -0.075571604073047638, -0.19190789759159088, 0.043202966451644897, 0.030329274013638496, 0.0027243653312325478, 0.11059243232011795, -0.10164051502943039, -0.17583465576171875, -0.011984609067440033, -0.13654449582099915, -0.17649176716804504, -0.18841207027435303, -0.20091773569583893, 0.040895804762840271, 0.056730825453996658, 0.051547452807426453, 0.001622085808776319, -0.17452193796634674, 0.037863817065954208, 0.088441520929336548, -0.037813086062669754, -0.039285216480493546, -0.031506787985563278, 0.016528479754924774, -0.11136293411254883, 0.094863831996917725, 0.032027758657932281, 0.075836345553398132, -0.025737889111042023, -0.084397852420806885, -0.10463631898164749, -0.10026336461305618, 0.053811211138963699, -0.099815517663955688, 0.088647365570068359, 0.036370038986206055, -0.066478870809078217, 0.05652531236410141, -0.045548234134912491, -0.13255207240581512, 0.021030234172940254, 0.071284666657447815, 0.01585332490503788, 0.018299268558621407, -0.028227804228663445, 0.007523625623434782, 0.040222946554422379, -0.094916768372058868, -0.16439566016197205, 0.00050525041297078133, 0.072367839515209198, 0.073597036302089691, -0.055112455040216446, 0.02066313661634922, 0.097715072333812714, -0.04006282240152359, -0.19297344982624054, 0.047622349113225937, 0.049772124737501144, -0.081737853586673737, -0.13086283206939697, -0.0097729004919528961, -0.056494906544685364, -0.0064633563160896301, 0.06965966522693634, -0.053793329745531082, 0.056378286331892014, -0.083497628569602966, -0.10473434627056122, -0.036228377372026443, -0.0012757572112604976, 0.042745459824800491, -0.13647805154323578, -0.16814036667346954, -0.14719614386558533, -0.19369128346443176, -0.033208172768354416, 0.011503614485263824, -0.11649610102176666, 0.041986919939517975, 0.13372123241424561, 0.094486251473426819, -0.094075106084346771, -0.15944144129753113, 0.078020587563514709, -0.18895372748374939, -0.090256340801715851, -0.079210475087165833, -0.12873357534408569, 0.028597449883818626, -0.22228898108005524, 0.0019686522427946329, -0.10066311806440353, -0.075664877891540527, 0.0065901945345103741, -0.20623509585857391, -0.13803113996982574, -0.05433337390422821, -0.15184332430362701, -0.16116349399089813, 0.046844527125358582, 0.098670341074466705, 0.072202391922473907, 0.051369264721870422, 0.051273379474878311, -0.088211365044116974, 0.023282604292035103, 0.035592023283243179, -0.11630494892597198, 0.024154862388968468, -0.1557147353887558, -0.046734828501939774, -0.136338010430336, -0.089584045112133026, 0.099872857332229614, -0.087840616703033447, -0.10562726855278015, -0.16520065069198608, 0.13065493106842041, -0.183328777551651, -0.10448145121335983, -0.035792507231235504, 0.048587873578071594, -0.15623798966407776, 0.066764570772647858, 0.065564431250095367, 0.1160857230424881, 0.019003182649612427, -0.16217678785324097, -0.17544727027416229, 0.049740586429834366, -0.092807196080684662, -0.07517588883638382, -0.11759229004383087, 0.13596838712692261, 0.147756427526474, -0.024860017001628876, -0.059886939823627472, -0.064493268728256226, -0.022750452160835266, 0.097637511789798737, -0.08716263622045517, 0.014360046945512295, -0.1255829781293869, 0.073206812143325806, -0.1418178528547287, -0.097474761307239532, -0.13899391889572144, 0.10187184810638428, -0.064028777182102203, -0.10138828307390213, 0.076063282787799835, -0.075775884091854095, -0.17010843753814697, -0.090973846614360809, 0.0077369557693600655, -0.11872715502977371, -0.029020203277468681, -0.087992854416370392, 0.024401478469371796, -0.11197779327630997, -0.14377644658088684, 0.1113002747297287, 0.092158526182174683, 0.12910230457782745, -0.0040365708991885185, -0.14344891905784607, 0.1274314820766449, 0.11031890660524368, -0.0024751063901931047, -0.13070020079612732, -0.12745577096939087, 0.0092530762776732445, 0.10698001831769943, -0.061569932848215103, -0.0036873554345220327, -0.017151437699794769, -0.12888717651367188, 
  -0.13141727447509766, -0.37432944774627686, 0.91438937187194824, 2.6260848045349121, 1.9276673793792725, 2.4112372398376465, 3.0286946296691895, 2.5069980621337891, 1.2802226543426514, 0.40131735801696777, -0.055560827255249023, 0.11092507094144821, 0.65475928783416748, 0.3909916877746582, -0.38595563173294067, -0.47306102514266968, -1.1018983125686646, -0.91887044906616211, -1.0043880939483643, -1.0578922033309937, -1.6810880899429321, -2.0854361057281494, -2.6243095397949219, -2.9813089370727539, -1.9747508764266968, -2.0043461322784424, -2.9782962799072266, -1.4330253601074219, -0.96349054574966431, -1.0023564100265503, -0.81624883413314819, -0.40422317385673523, -0.14562933146953583, 0.4253966212272644, 0.55501145124435425, 0.30805590748786926, 0.61277168989181519, -0.00063489098101854324, -0.42959755659103394, -0.095978334546089172, -0.14747996628284454, -0.1893388032913208, -0.88842517137527466, -0.9829632043838501, -0.1912587434053421, -0.57950490713119507, -0.31956923007965088, -0.63736242055892944, -0.91136068105697632, -0.36225172877311707, -0.53618937730789185, -0.043454699218273163, -0.0061155124567449093, -0.13329401612281799, 0.056965291500091553, 0.37530907988548279, 0.27844694256782532, -0.14777329564094543, 0.31829512119293213, 0.22619415819644928, -0.033729609102010727, 0.5399748682975769, 0.52705329656600952, -0.033710021525621414, 0.62056326866149902, 0.12551918625831604, 0.10237258672714233, -0.039739742875099182, 0.013543673790991306, 0.25522416830062866, 0.48675984144210815, 0.66182541847229004, 0.75695109367370605, 0.732077956199646, 0.12247409671545029, 0.13344775140285492, 0.41385748982429504, 0.021615583449602127, -0.090025775134563446, -0.022739872336387634, 0.27832591533660889, -0.16984494030475616, 0.0010944148525595665, 0.011414214968681335, 0.20186625421047211, -0.013419033959507942, 0.39802539348602295, 0.27055490016937256, 0.30710315704345703, 0.40870535373687744, 0.50376498699188232, 0.37772059440612793, 0.28688111901283264, -0.021615223959088326, 0.23174722492694855, 0.48649096488952637, 0.38500893115997314, -0.073406241834163666, 0.3867950439453125, 0.073680207133293152, 0.37468606233596802, 0.4459729790687561, -0.2452101856470108, 0.080651715397834778, 0.024385584518313408, 0.2029130756855011, 0.046028062701225281, 0.087726674973964691, 0.006915524136275053, 0.19145004451274872, 0.19280591607093811, -0.057290069758892059, 0.2816733717918396, 0.59798550605773926, 0.36150360107421875, -0.10074564814567566, -0.20130366086959839, -0.8479277491569519, -0.19776448607444763, 0.39572945237159729, -0.50565457344055176, -0.050740640610456467, 0.14666926860809326, 0.66547912359237671, 0.4803568422794342, -0.5814099907875061, -0.34347617626190186, 0.44730469584465027, -0.027596626430749893, -0.37082800269126892, 0.7014240026473999, 0.05595199391245842, 0.46166729927062988, -0.39065411686897278, -0.05063483864068985, -0.69014567136764526, -0.43918317556381226, 0.054401267319917679, 0.030417656525969505, -0.12517569959163666, -0.29941245913505554, -0.44161441922187805, -0.51431626081466675, -0.75854909420013428, -0.85657572746276855, 0.099093802273273468, -0.53470021486282349, -0.63689762353897095, -0.64708268642425537, -0.55319243669509888, -0.054681971669197083, 0.88420313596725464, -0.30264902114868164, 0.32877746224403381, 0.22867926955223083, -0.20114247500896454, -0.11788710951805115, 0.053841199725866318, -0.052221961319446564, -0.5161970853805542, -0.44769909977912903, 0.029573084786534309, 0.18420103192329407, -1.1522173881530762, -0.54602175951004028, -0.55518108606338501, 0.82992273569107056, 0.90225279331207275, 0.66613423824310303, 0.10103935748338699, 0.84517544507980347, 0.84375905990600586, 0.18368804454803467, -0.28517130017280579, -0.51199078559875488, -0.61663305759429932, -0.21261125802993774, 0.046190794557332993, 0.75489163398742676, 0.17209839820861816, 1.0822641849517822, -0.16582177579402924, 0.27569714188575745, 0.27775418758392334, 0.52016144990921021, 
  -0.50454777479171753, 0.38185021281242371, 1.0989285707473755, 0.091801837086677551, -1.3506412506103516, -1.7357381582260132, -2.0435168743133545, -1.4169620275497437, -1.6345443725585938, -1.8699944019317627, -1.9735233783721924, -1.4969143867492676, -1.2400496006011963, -0.48633331060409546, -0.83482325077056885, -1.2057080268859863, -1.0827100276947021, -0.93440115451812744, -1.5330623388290405, -1.5018852949142456, -1.6999785900115967, -1.3556538820266724, -1.9447917938232422, -1.3592230081558228, -1.8271889686584473, -1.2439278364181519, -1.0041581392288208, -0.35584032535552979, 0.067662879824638367, 0.21160869300365448, 0.43576526641845703, 0.60476148128509521, 0.51590818166732788, 0.64095604419708252, 0.22096380591392517, 0.21153448522090912, -0.052516404539346695, -0.050224762409925461, -0.37762373685836792, -0.61954063177108765, -0.70870828628540039, -0.54634839296340942, -0.43126004934310913, -0.63461518287658691, -0.52387869358062744, -0.28218492865562439, -0.19570921361446381, -0.092653043568134308, 0.23839256167411804, 0.39613661170005798, 0.65171992778778076, 0.62211459875106812, 0.06454787403345108, 0.35061123967170715, 0.064468219876289368, 0.18429768085479736, 0.24812670052051544, 0.57853823900222778, 0.63993877172470093, 0.16689321398735046, 0.32293963432312012, 0.58600282669067383, 0.261930912733078, 0.09782823920249939, 0.15924471616744995, 0.42193573713302612, 0.23053368926048279, -0.24486745893955231, -0.082097344100475311, 0.35264489054679871, 0.29779776930809021, 0.13340319693088531, 0.11127810925245285, -0.27354630827903748, -0.26505672931671143, 0.12808334827423096, 0.42125606536865234, 0.82270580530166626, 1.6015733480453491, 1.2307876348495483, 1.2035000324249268, 1.0288971662521362, 0.58915805816650391, 0.7094685435295105, 0.69456976652145386, 1.1430455446243286, 0.1093568354845047, 0.30225825309753418, -0.53008610010147095, -0.53993302583694458, -1.1637324094772339, -0.88299453258514404, -0.62205517292022705, -0.085988514125347137, 0.9064018726348877, 0.67393207550048828, 0.34507626295089722, -0.1557387113571167, 0.13996075093746185, 0.25954157114028931, 0.15847048163414001, 0.46740204095840454, -0.39392450451850891, -0.39884459972381592, -0.58740526437759399, -0.64524424076080322, -0.30844134092330933, 0.35336306691169739, 0.032233361154794693, -0.081429772078990936, -0.71636664867401123, -0.36756893992424011, -0.32414543628692627, 0.35827422142028809, 0.49017059803009033, 0.49409967660903931, 1.1246316432952881, 1.3330554962158203, 1.2900034189224243, 1.4099688529968262, 1.1786433458328247, 1.2555602788925171, 1.201448917388916, 0.88032108545303345, 0.30739948153495789, 0.16635800898075104, 0.1642611175775528, 0.33012837171554565, 1.2250150442123413, 0.65405541658401489, -0.44891107082366943, 0.32242807745933533, 0.77905356884002686, 0.57048535346984863, 0.040750481188297272, -0.15098786354064941, 0.22631165385246277, 0.038803115487098694, 0.28347200155258179, 0.1055065244436264, 0.35675898194313049, 0.10159463435411453, 0.61152523756027222, 0.44676318764686584, -0.1033337339758873, -0.29765105247497559, -0.12137025594711304, 0.40561079978942871, 0.46143877506256104, 0.033168718218803406, -0.047618333250284195, -0.17235256731510162, 0.038343150168657303, 0.3745267391204834, 0.41024681925773621, 0.07384762167930603, 0.0063467063009738922, -0.19535748660564423, 0.094018898904323578, -0.32521545886993408, -0.36109417676925659, 0.27344045042991638, 0.51793110370635986, 0.2725004255771637, 0.24016992747783661, 0.93280363082885742, 0.28916198015213013, -0.28569820523262024, 0.31601998209953308, 0.22740811109542847, -0.45785695314407349, -0.65068143606185913, -0.50754660367965698, -0.45855346322059631, -0.73522061109542847, -0.57549548149108887, -0.50518929958343506, -0.62979584932327271, -0.89901429414749146, -1.13359534740448, -1.4855411052703857, -1.5332491397857666, -1.9457237720489502, -2.093552827835083, -0.73275768756866455, 
  0.57668203115463257, 1.29506516456604, 1.7757015228271484, -0.87676531076431274, -4.2469820976257324, -2.0097520351409912, 0.84941560029983521, 0.8235669732093811, 0.69453811645507812, 1.3120704889297485, 0.65719068050384521, 0.37244263291358948, -0.49458730220794678, -1.4522545337677002, -1.3883061408996582, -0.88289088010787964, -1.0710457563400269, -1.0886142253875732, -0.75524240732192993, -0.46844577789306641, -0.44372609257698059, -0.094859957695007324, -0.10417471081018448, 0.23384490609169006, 0.38391962647438049, 0.51300323009490967, 0.97312581539154053, 1.3081032037734985, 1.6774053573608398, 1.9104299545288086, 2.1489391326904297, 2.3900561332702637, 1.8989963531494141, 1.4758045673370361, 1.0041080713272095, 0.54204583168029785, -0.08087158203125, -0.46594688296318054, -0.56649237871170044, -0.85646164417266846, -1.2271500825881958, -0.95698767900466919, -1.0819262266159058, -0.86941266059875488, -1.250603199005127, -0.91609799861907959, -0.92771726846694946, -0.9058302640914917, -0.99221360683441162, -0.88003373146057129, -0.63730043172836304, -0.22728750109672546, -0.36557352542877197, 0.065169855952262878, 0.12282194942235947, 0.58077782392501831, 0.63968467712402344, 0.06761709600687027, -0.018207458779215813, 0.23401163518428802, -0.17121873795986176, -0.20959708094596863, -0.034734673798084259, 0.20174621045589447, -0.47927123308181763, 0.092971205711364746, 0.27468541264533997, 0.023661134764552116, 0.097788155078887939, 0.14868812263011932, 0.47299498319625854, 0.29035225510597229, 0.25978714227676392, 0.64919018745422363, 0.22078566253185272, -0.17346401512622833, 0.30700406432151794, 0.48896235227584839, -0.099600896239280701, -0.16070385277271271, -0.39592477679252625, 0.059001829475164413, -0.75305783748626709, -0.38010340929031372, -0.53964692354202271, -0.24887439608573914, -0.54204636812210083, -0.43836724758148193, 0.046230178326368332, 0.14526969194412231, 0.2547537088394165, -0.51146572828292847, -0.13127189874649048, -0.09968779981136322, -0.20892761647701263, -0.33924740552902222, 0.033592876046895981, 0.31152376532554626, 0.63653707504272461, 0.45394733548164368, 0.3131251335144043, 0.32029473781585693, 0.30925333499908447, 0.61136549711227417, 0.05731828510761261, 0.88119059801101685, 0.64855879545211792, 0.15896262228488922, 0.15826083719730377, 0.36708968877792358, 0.37449547648429871, 0.76702427864074707, 0.16051702201366425, -0.28116005659103394, -0.20918487012386322, 0.35682925581932068, -0.48949193954467773, -0.18323858082294464, -0.24792423844337463, -0.53694945573806763, 0.50996476411819458, 0.1826118528842926, -0.07049078494310379, 0.16594205796718597, 0.28808453679084778, -0.13704420626163483, -0.66908448934555054, -0.35055714845657349, -0.2794603705406189, -0.24046090245246887, -0.7706102728843689, -0.19663891196250916, -0.11820204555988312, 0.0039894641377031803, -0.20138242840766907, 0.62602460384368896, -0.25916135311126709, -1.4134358167648315, 0.16525256633758545, -0.47958067059516907, -0.57415580749511719, -1.1281307935714722, -1.2790344953536987, -2.7310395240783691, -1.4496356248855591, -1.3897997140884399, -0.031439319252967834, 1.1123983860015869, 1.3199126720428467, 0.32520473003387451, -1.0189151763916016, -0.10876162350177765, 0.60484707355499268, 0.24485939741134644, -0.45393058657646179, -0.63392281532287598, -0.49958351254463196, -0.18310925364494324, 0.28651875257492065, -0.70525723695755005, -2.4670462608337402, -2.0058660507202148, -0.97916406393051147, -1.7089983224868774, -1.8918323516845703, -1.6445424556732178, -1.7239331007003784, -1.2537980079650879, -1.2381725311279297, -0.63560223579406738, -1.5169141292572021, -1.9976418018341064, -1.3435631990432739, -0.91711318492889404, -1.9575710296630859, -1.7565274238586426, -1.9605610370635986, -1.8129655122756958, -2.0380942821502686, -0.83070802688598633, -0.88819557428359985, -0.68753886222839355, -0.72285681962966919, -0.75235623121261597, 1.2785897254943848, 
  1.1187131404876709, 0.49000880122184753, -0.35187691450119019, -2.4825153350830078, -1.1589820384979248, -0.25582638382911682, -1.5351145267486572, -2.0923309326171875, -2.2836096286773682, -1.9746159315109253, -0.58831566572189331, -0.12963007390499115, -0.10985627025365829, -0.3341335654258728, 0.25830864906311035, 0.43916535377502441, 0.30967769026756287, 0.97287458181381226, 0.83172881603240967, 0.99146848917007446, 1.1212055683135986, 0.87092190980911255, 0.90082532167434692, 0.2305721640586853, 0.38951221108436584, -0.25697261095046997, -0.47661232948303223, -0.91346752643585205, -1.6296837329864502, -1.754584789276123, -1.9593406915664673, -2.6015393733978271, -2.3992149829864502, -2.1902568340301514, -2.0838136672973633, -1.3878873586654663, -1.0532797574996948, -0.50378912687301636, -0.016072692349553108, 0.042471759021282196, 0.49876010417938232, 0.54377931356430054, 0.86552673578262329, 1.0476170778274536, 0.73156082630157471, 0.64074265956878662, -0.02859228104352951, 0.61583304405212402, 0.75700557231903076, 0.7158362865447998, 0.9467584490776062, 0.081114567816257477, -0.50205338001251221, -0.41910421848297119, -0.075996361672878265, -0.44989609718322754, -0.029542770236730576, 0.15887826681137085, -0.010143705643713474, -0.27621990442276001, -0.23563025891780853, -0.055744446814060211, 0.26576045155525208, 0.39257881045341492, -0.088801123201847076, 0.14134356379508972, 0.2809605598449707, 0.53299355506896973, 0.27655723690986633, 0.21856234967708588, 0.78217220306396484, 0.76951074600219727, 0.77545517683029175, 0.047206159681081772, 0.090307660400867462, -0.020820146426558495, 0.24385634064674377, 0.10156382620334625, 0.27328628301620483, -0.027866318821907043, 0.16137635707855225, 0.2102203369140625, 0.35667896270751953, 0.93641817569732666, 0.7495160698890686, 0.71278280019760132, 0.49008336663246155, 0.37653452157974243, 0.18094174563884735, 0.19684579968452454, -0.18746662139892578, 0.13927757740020752, -0.38796356320381165, -0.0046307477168738842, -0.18077042698860168, -0.046762656420469284, -0.16777244210243225, 0.4256151020526886, 0.76444578170776367, 0.58641433715820312, 0.44961604475975037, 0.2991931140422821, 0.43595871329307556, 0.30321812629699707, 0.072227835655212402, 0.41231757402420044, -0.62150245904922485, -0.68999141454696655, -0.23347705602645874, -0.25233110785484314, -0.49389117956161499, -0.76674163341522217, -0.25916919112205505, -0.91729480028152466, -1.2022165060043335, -0.63708198070526123, -0.74185693264007568, -0.37070110440254211, -1.5913776159286499, -2.074970006942749, -1.2225185632705688, -1.131311297416687, -0.27273881435394287, -0.56634706258773804, -0.74839198589324951, -1.1806298494338989, -0.39017117023468018, -1.0123511552810669, -2.0120086669921875, -1.261371374130249, -0.84064096212387085, -1.1221898794174194, -1.4159941673278809, -1.7472076416015625, -1.1719024181365967, 0.32166439294815063, 0.97753393650054932, 0.16965323686599731, 0.55467689037322998, 1.7068972587585449, 1.5427063703536987, 0.87303167581558228, 0.202753946185112, 0.32031980156898499, 0.90614229440689087, 0.45558586716651917, 0.57325392961502075, 1.0469710826873779, 0.30245387554168701, -0.31160071492195129, -0.77909713983535767, -0.70057320594787598, 0.20875905454158783, -0.31142511963844299, -0.065396629273891449, 0.18748360872268677, -0.26181545853614807, -0.0235862135887146, 0.22734002768993378, 0.833473801612854, 1.3398885726928711, 0.42525148391723633, 0.34764432907104492, 0.28484213352203369, 0.35755011439323425, 0.26847872138023376, 0.4604942798614502, 0.087357871234416962, -0.066656909883022308, 0.073410481214523315, 1.1651022434234619, 0.73425000905990601, -0.12872625887393951, -1.1179314851760864, -0.086512811481952667, -0.88440799713134766, -1.035499095916748, -0.62212544679641724, -1.3479721546173096, -1.482194185256958, -1.5986309051513672, -1.0969623327255249, -1.1023575067520142, -1.1603920459747314, -1.0024281740188599, 
  0.91173583269119263, 1.1491256952285767, 1.3828051090240479, 2.8769359588623047, 0.3023344874382019, -2.0880837440490723, -2.4199297428131104, -2.4573900699615479, -2.1218852996826172, -1.021762490272522, -0.077954083681106567, 0.15469220280647278, 0.59795451164245605, 0.16869890689849854, -0.25958982110023499, -0.021611988544464111, -0.1154513880610466, -0.36350330710411072, -0.25274139642715454, -0.26546403765678406, -0.65243560075759888, -0.55968201160430908, -0.25985297560691833, -0.045665435492992401, 0.28581610321998596, 0.44484075903892517, 0.40297171473503113, 0.5637938380241394, 0.82507210969924927, 0.73325824737548828, 0.54465192556381226, 0.47183823585510254, 0.0083584114909172058, -0.27018818259239197, -0.53457915782928467, -0.80573832988739014, -0.97111457586288452, -1.1515641212463379, -0.78954052925109863, -0.80167227983474731, -0.53247696161270142, -0.056300468742847443, -0.088673487305641174, 0.19171419739723206, -0.2654191255569458, -0.17719818651676178, 0.3166300356388092, 0.62126481533050537, 0.7263292670249939, 0.45488372445106506, 0.31073084473609924, -0.24852468073368073, -0.3010660707950592, -0.11392416059970856, -0.35378780961036682, 0.066103316843509674, 0.58061647415161133, 0.25402736663818359, -0.035240136086940765, 0.17264983057975769, 0.12817910313606262, -0.0038495357148349285, -0.64949244260787964, -0.96161079406738281, -0.43998277187347412, 0.097360432147979736, 0.12989504635334015, -0.043567076325416565, -0.35289841890335083, -0.42710378766059875, -0.033145204186439514, -0.25652021169662476, -1.3478003740310669, -1.088072657585144, -1.2241276502609253, -0.70330959558486938, -0.57946068048477173, -0.40797489881515503, -0.51246428489685059, -0.59233218431472778, -0.29032763838768005, 0.14301449060440063, -0.35165664553642273, -0.36487352848052979, -0.5600171685218811, -0.12942887842655182, -0.17054019868373871, -0.26877307891845703, -0.33488655090332031, -0.76949542760848999, -0.67810046672821045, -0.53765815496444702, -0.11490865051746368, 0.14318498969078064, 0.28661534190177917, 0.2930854856967926, -0.049201738089323044, 0.33778685331344604, 0.29997789859771729, -0.16926498711109161, -0.13305559754371643, 0.29862320423126221, -0.28788694739341736, -0.39021900296211243, 0.11754895746707916, 0.35545003414154053, -0.20848056674003601, -0.2412199079990387, -0.62793952226638794, 0.14466102421283722, 0.26057285070419312, 1.0469096899032593, 1.1826589107513428, 1.0384604930877686, -0.10915938019752502, -0.17959292232990265, -0.17668285965919495, 0.16052301228046417, 0.42182427644729614, 0.16293624043464661, -0.28965610265731812, 0.088805630803108215, 0.12811103463172913, -1.2197036743164062, -0.78093189001083374, -0.89113336801528931, -1.9184718132019043, -0.60136973857879639, -1.0326896905899048, -0.69178169965744019, -2.4465198516845703, -3.0013790130615234, -3.3279497623443604, -3.0972332954406738, -2.7595028877258301, -2.8984379768371582, -2.9486339092254639, -3.4909417629241943, -2.7377266883850098, -2.1232309341430664, -2.133446216583252, -1.804242730140686, -1.9102789163589478, -2.0762860774993896, -0.28471964597702026, -5.0514335632324219, -3.8178391456604004, -1.6521791219711304, -1.0023941993713379, -1.0061802864074707, -0.89850765466690063, -1.3665359020233154, -0.9612739086151123, -1.3698410987854004, -1.0822513103485107, -1.6509109735488892, -1.3826942443847656, -1.6319726705551147, -1.6015403270721436, -1.7027127742767334, -1.4062061309814453, -1.3619376420974731, -0.98538434505462646, -1.1829222440719604, -0.74696284532546997, -0.91548651456832886, -0.86375868320465088, -0.76799196004867554, -0.82484376430511475, -1.179174542427063, -1.3398967981338501, -1.6392664909362793, -1.5473815202713013, -1.7947201728820801, -1.7600959539413452, -1.8376762866973877, -1.7179720401763916, -1.8938651084899902, -1.8359977006912231, -1.9044737815856934, -1.4759835004806519, -1.7251975536346436, -1.7770028114318848, -1.8122838735580444, -1.907127857208252, 
  1.0837361812591553, -0.074053958058357239, -0.91591209173202515, -2.321502685546875, -1.1254327297210693, 0.50167733430862427, 0.73032832145690918, -0.31122556328773499, -0.77610552310943604, -0.49501639604568481, -0.3508782684803009, 0.18480679392814636, 0.1862063854932785, 0.082355096936225891, 0.051392309367656708, 0.18182745575904846, 0.12360247224569321, 0.13276700675487518, 0.29000207781791687, 0.7404596209526062, 0.26321232318878174, 0.065566420555114746, 0.085833169519901276, -0.064851805567741394, -0.78465700149536133, -1.0044668912887573, -0.85573548078536987, -0.93798738718032837, -1.0215680599212646, -0.4654848575592041, -0.75533533096313477, -0.16441591084003448, 0.36684679985046387, 0.85399138927459717, 1.027061939239502, 1.3142387866973877, 1.712756872177124, 1.7564331293106079, 1.7432023286819458, 1.7558116912841797, 1.3465372323989868, 0.63546240329742432, 0.57140403985977173, -0.17620193958282471, -0.79026597738265991, 0.088211551308631897, -0.40679609775543213, -1.113532543182373, -0.90312087535858154, -1.3305816650390625, -1.7179132699966431, -1.8174179792404175, -1.6998745203018188, -1.2222323417663574, -0.25035500526428223, 0.89781337976455688, 1.0045205354690552, 1.2471187114715576, 1.2544213533401489, 1.6887990236282349, 0.79246616363525391, -0.59297150373458862, -1.2793395519256592, -1.9988234043121338, -0.78706687688827515, -0.33825454115867615, -0.13959001004695892, 0.050608176738023758, 0.26342740654945374, -0.20237445831298828, -0.30368533730506897, -0.52618467807769775, -0.15140549838542938, 0.42427414655685425, 0.23677618801593781, 0.0068136290647089481, -0.11702881753444672, 0.092333264648914337, 0.040942836552858353, 0.30532455444335938, -0.44459405541419983, 0.21053794026374817, 0.2979658842086792, 0.31117865443229675, -0.5267072319984436, -0.93519264459609985, -1.3149833679199219, -1.2718691825866699, -1.354941725730896, -1.6908427476882935, -1.6609896421432495, -1.100361704826355, -0.89670640230178833, -1.2066067457199097, -0.99424654245376587, -0.60716617107391357, 0.15478281676769257, 0.77458339929580688, 0.33345410227775574, 0.1240798756480217, 0.77426606416702271, 0.44803923368453979, -0.061719309538602829, 0.1694243848323822, 0.12127961963415146, 0.0467807836830616, 0.51241958141326904, 0.28452339768409729, 0.32146787643432617, 0.4427160918712616, 0.66361385583877563, 0.76504147052764893, 0.98588842153549194, 0.16034588217735291, -0.66684246063232422, 0.45208048820495605, 0.467265784740448, 0.68112218379974365, 0.038375876843929291, -0.0085465917363762856, 0.19636748731136322, 0.042429372668266296, -0.56374663114547729, -0.61118054389953613, 0.32177922129631042, 0.33992037177085876, -0.27625876665115356, 0.20684844255447388, -0.10033173859119415, -0.12504489719867706, 0.47043347358703613, 1.4082022905349731, 0.59136790037155151, -0.20901033282279968, -0.24361477792263031, 0.032523762434720993, 0.37059548497200012, 0.25695616006851196, -0.074032396078109741, 0.46728390455245972, 0.21422669291496277, 0.24209116399288177, -0.190843865275383, -0.3272969126701355, 0.19063979387283325, 0.88753789663314819, 0.80397272109985352, 0.54874199628829956, 0.29779219627380371, 0.42246034741401672, 0.28575649857521057, -0.74932861328125, -0.67250937223434448, -0.88674145936965942, -0.066059477627277374, 0.50103467702865601, 0.094549804925918579, -0.079071402549743652, -0.087923161685466766, -0.088547788560390472, -0.081620931625366211, 0.40485659241676331, 1.0709377527236938, 0.68621152639389038, -0.52621811628341675, -0.059720888733863831, 0.23005358874797821, -0.031598024070262909, 0.043190140277147293, -0.13330771028995514, -0.012105942703783512, -0.21319814026355743, 0.38086357712745667, 0.17942200601100922, -0.42157432436943054, -0.58098047971725464, 0.68491673469543457, 1.0113157033920288, 0.45743224024772644, -0.53246402740478516, -2.3014051914215088, -1.6180019378662109, -1.8357583284378052, -1.9403383731842041, -1.7329461574554443, 
  -0.54423856735229492, -0.3486541211605072, -0.67129343748092651, -0.6780388355255127, -0.49996334314346313, -0.56343561410903931, -0.65155917406082153, -0.42459562420845032, -0.35453763604164124, -0.49703410267829895, -0.34054479002952576, 0.029976727440953255, -0.18968108296394348, -0.28367802500724792, -0.26588243246078491, 0.020266292616724968, -0.20324909687042236, -0.053920343518257141, -0.013183876872062683, -0.15775243937969208, -0.31699532270431519, -0.10590448975563049, -0.24983647465705872, -0.43049255013465881, -0.33173742890357971, -0.36989870667457581, -0.26905688643455505, -0.47831803560256958, -0.55651414394378662, -0.33447784185409546, -0.18095400929450989, -0.39216572046279907, 0.056819971650838852, -0.069437414407730103, 0.039587527513504028, 0.093861393630504608, 0.15015429258346558, -0.0038785741198807955, -0.20226235687732697, 0.024117052555084229, -0.02188827283680439, 0.18728961050510406, 0.25470545887947083, 0.23105783760547638, 0.17231711745262146, 0.060413550585508347, -0.00041577854426577687, -0.022705396637320518, -0.83865618705749512, -0.5775027871131897, -0.54653257131576538, -0.63363921642303467, -0.72638612985610962, -0.73418331146240234, -0.78657221794128418, -0.35549688339233398, -0.57824128866195679, -0.076868876814842224, -0.047125954180955887, 0.10623782128095627, -0.13354094326496124, -0.22999227046966553, -0.18819092214107513, -0.058431226760149002, -0.24841007590293884, -0.19018004834651947, -0.13101388514041901, -0.18131020665168762, -0.096595436334609985, -0.32842844724655151, -0.34825059771537781, -0.21456937491893768, -0.081075720489025116, -0.4394630491733551, -0.42792016267776489, -0.22645258903503418, -0.41285306215286255, -0.41418519616127014, -0.20813542604446411, -0.2860526442527771, -0.44344824552536011, -0.30079805850982666, -0.38024768233299255, -0.31163966655731201, -0.25412723422050476, -0.14280475676059723, -0.32870271801948547, -0.16691610217094421, -0.2618425190448761, -0.39506250619888306, -0.22442632913589478, -0.14062625169754028, -0.34134623408317566, -0.32776013016700745, -0.16584916412830353, -0.31428489089012146, -0.28371924161911011, -0.07073463499546051, -0.090325675904750824, -0.14784665405750275, -0.25338706374168396, -0.13202248513698578, -0.17862363159656525, -0.36989390850067139, -0.33983722329139709, -0.20421747863292694, -0.22095468640327454, -0.26317921280860901, -0.20105649530887604, -0.086056433618068695, -0.1902347207069397, -0.29131430387496948, -0.19652655720710754, -0.11953575164079666, -0.010474937036633492, -0.058621328324079514, -0.10819817334413528, -0.095854006707668304, -0.25556311011314392, -0.0060173193924129009, -0.18194139003753662, -0.13872818648815155, -0.088189989328384399, -0.11986284703016281, -0.044453982263803482, -0.032325960695743561, -0.25879329442977905, -0.027450449764728546, -0.21582189202308655, 0.0047238068655133247, 0.095732420682907104, -0.10552370548248291, 0.15548409521579742, -0.074220791459083557, -0.052608001977205276, 0.022216198965907097, -0.10057581961154938, 0.033854782581329346, 0.036357801407575607, -0.15796771645545959, -0.22722354531288147, -0.1630573570728302, -0.032510329037904739, 0.027608400210738182, 0.022760294377803802, -0.15197713673114777, -0.20844848453998566, -0.27238714694976807, -0.13231875002384186, -0.035377617925405502, -0.16634844243526459, -0.054226797074079514, -0.026116492226719856, -0.020375065505504608, 0.02522549033164978, -0.042411003261804581, -0.01493077352643013, -0.16144877672195435, -0.20382972061634064, -0.097512803971767426, -0.26629674434661865, -0.29095262289047241, -0.20851358771324158, -0.08355335146188736, -0.20262180268764496, -0.048416700214147568, -0.33554208278656006, -0.11770689487457275, -0.14328938722610474, 0.18027304112911224, 0.27329829335212708, 0.25217384099960327, 0.034925643354654312, 0.18702007830142975, 0.20008507370948792, -0.021918576210737228, 0.16253453493118286, 0.058206677436828613, 0.13744284212589264, -0.13159725069999695, -0.043433632701635361, -0.041509620845317841, -0.23061503469944, -0.091186173260211945, -0.023009665310382843, 
  1.1085522174835205, 0.76991117000579834, -2.829669713973999, -6.1853737831115723, -0.085908971726894379, 2.9064428806304932, 2.7128937244415283, 2.4696571826934814, 1.7054812908172607, 0.44555157423019409, -0.4048190712928772, -0.52292841672897339, -0.91936802864074707, -0.65977585315704346, -0.78181970119476318, -0.61079126596450806, -0.86004114151000977, -0.96826332807540894, -0.70367372035980225, -0.61007267236709595, -0.36763712763786316, -0.07512500137090683, -0.059698738157749176, 0.078324407339096069, -0.16100673377513885, -0.17909947037696838, -0.58073586225509644, -0.26831623911857605, -0.58540040254592896, -0.059312794357538223, -0.079533040523529053, 0.12702412903308868, 0.44367101788520813, 0.62292379140853882, 0.68611955642700195, 0.59523773193359375, 0.58301955461502075, 0.50582617521286011, 0.44754132628440857, 0.22757144272327423, 0.26021426916122437, 0.19773271679878235, 0.35089102387428284, 0.064595282077789307, -0.061649400740861893, 0.26947829127311707, -0.14972667396068573, 0.0073287999257445335, 0.24364878237247467, -0.16250747442245483, 0.186463862657547, 0.40787202119827271, 0.2116086333990097, 0.062490068376064301, 0.031861025840044022, -0.1683390885591507, 0.33057257533073425, 0.71430760622024536, 0.28818351030349731, -0.21544957160949707, -0.38590842485427856, -0.19776511192321777, 0.16023093461990356, 0.3992120623588562, 0.18823240697383881, -0.25398704409599304, 0.030384423211216927, 0.22837187349796295, 0.34683188796043396, 0.12011193484067917, 0.3283589780330658, -0.022010033950209618, 0.37298634648323059, 0.33489459753036499, 0.22934231162071228, 0.25502899289131165, 0.29723000526428223, 0.14274467527866364, -0.062332961708307266, 0.25751078128814697, -0.14409328997135162, 0.37120524048805237, 0.072236537933349609, 0.24507875740528107, -0.29112973809242249, 0.10761773586273193, -0.12476913630962372, -0.46470522880554199, -0.27205923199653625, -0.0059990524314343929, -0.51556062698364258, -0.39661237597465515, -0.4005255401134491, -0.82567799091339111, -0.51736265420913696, -0.11535283178091049, -0.50927633047103882, 0.53405719995498657, 0.3577580451965332, 0.54022514820098877, 0.35278201103210449, 0.46829631924629211, 0.27541735768318176, 0.52648955583572388, 0.35125252604484558, 0.31130802631378174, 0.50555902719497681, 0.53962069749832153, 0.10963866114616394, 0.28130558133125305, 0.29860788583755493, 0.33416447043418884, 0.22302086651325226, 0.14621631801128387, 0.020995218306779861, -0.1074657067656517, -0.021038316190242767, 0.012712931260466576, -0.47645500302314758, 0.04367334395647049, 0.63167315721511841, -0.073206722736358643, -0.49558168649673462, -0.35092437267303467, -0.12212459743022919, 0.44345304369926453, 0.017138563096523285, -0.93189054727554321, -0.36552318930625916, -0.49482461810112, -0.80279815196990967, -0.17820598185062408, -0.043362837284803391, 0.32674068212509155, 0.090387396514415741, 0.50051331520080566, 0.052234258502721786, -0.45896950364112854, 0.0034089544788002968, 0.44374331831932068, 0.080016285181045532, 0.38395625352859497, 0.17223858833312988, 0.11782636493444443, 0.02899632416665554, -0.7198830246925354, -0.96018379926681519, -1.5044982433319092, -1.7321680784225464, -0.52677130699157715, -0.28161796927452087, -0.21445401012897491, -0.0806313157081604, -0.40743699669837952, -0.70607596635818481, -0.95163732767105103, -1.3186550140380859, -0.15480412542819977, 0.061929848045110703, -0.21506625413894653, 0.28114092350006104, 0.28756508231163025, 1.3445968627929688, 3.0042164325714111, 1.9454829692840576, 1.4039967060089111, 0.7888980507850647, 0.10688043385744095, 0.76042264699935913, 0.39821743965148926, -0.65378224849700928, 0.64678865671157837, -0.43550187349319458, -0.69396859407424927, -0.69381070137023926, -1.390392541885376, -2.8239555358886719, -2.9152178764343262, -2.1174521446228027, -1.7501914501190186, -2.0882859230041504, -2.6573851108551025, -2.9061713218688965, -3.0195751190185547, -2.7739763259887695, 
  1.0115756988525391, -0.76561665534973145, 1.0838301181793213, 1.3925107717514038, 2.9279243946075439, 1.5151504278182983, -0.21671253442764282, -2.0042488574981689, -2.7279644012451172, -3.4100105762481689, -3.2308356761932373, -3.039156436920166, -2.8375174999237061, -2.984055757522583, -1.9316861629486084, -1.3827614784240723, -0.83441239595413208, -0.11582032591104507, 0.1110931858420372, 0.39508184790611267, 0.53704500198364258, 0.79569703340530396, 1.0812845230102539, 0.72202801704406738, 1.0506905317306519, 1.0272846221923828, 1.1181968450546265, 0.56774455308914185, 0.70947486162185669, 0.08895980566740036, -0.16122536361217499, -0.71251118183135986, -0.7193753719329834, -0.74114906787872314, -0.92192059755325317, -0.78862404823303223, -0.46653422713279724, 0.044018551707267761, 0.37593948841094971, 0.39543822407722473, 0.45555788278579712, 0.53398847579956055, 0.53802895545959473, 1.0102156400680542, 0.60704344511032104, 0.36611971259117126, 0.35766592621803284, 0.18363310396671295, 0.18615937232971191, 0.25477886199951172, 0.34121218323707581, 0.17133089900016785, 0.31221401691436768, -0.064882569015026093, 0.47014567255973816, 0.077096231281757355, 0.29072996973991394, 0.049403566867113113, -0.52402490377426147, -0.017744001001119614, -0.10552357882261276, 0.0099929803982377052, -0.0012951954267919064, 0.42893257737159729, 0.018601590767502785, -0.26163432002067566, 0.47699421644210815, 0.41589635610580444, 0.21481955051422119, 0.3383210301399231, 0.58218342065811157, 0.5102120041847229, 0.41046813130378723, 0.35928189754486084, 0.41267493367195129, -0.07633807510137558, 0.21940818428993225, 0.39769038558006287, 0.77538466453552246, -0.034532926976680756, 0.36999735236167908, -0.12079078704118729, -0.48318508267402649, -0.34140411019325256, -0.37172290682792664, -0.55157727003097534, -0.017868597060441971, -0.089600726962089539, -0.025112459436058998, 0.60318982601165771, 0.24878264963626862, 0.47018066048622131, 0.072150133550167084, 0.04806799441576004, 0.36651214957237244, 0.81870466470718384, 0.8952791690826416, 0.20312397181987762, -0.074890494346618652, 0.18633465468883514, 0.41477710008621216, 0.38830405473709106, 0.35235452651977539, -0.35230576992034912, -0.048421163111925125, 0.10881786048412323, 0.17380848526954651, 0.19130046665668488, 0.80715608596801758, -0.19985620677471161, -0.5523027777671814, -0.38032731413841248, 0.15055996179580688, 0.45053625106811523, 0.44381535053253174, 0.22377026081085205, -0.042510353028774261, 0.21529436111450195, -0.033570826053619385, -0.098009638488292694, -0.57014846801757812, 0.14687260985374451, 0.60054636001586914, 0.89943206310272217, -0.28748819231987, 0.41937977075576782, 0.86271899938583374, 0.39281919598579407, -0.16731067001819611, -0.52953559160232544, 0.28871801495552063, -0.86927193403244019, -2.0303108692169189, -0.6051819920539856, -1.8713152408599854, -2.6640341281890869, -1.5530320405960083, -0.69151055812835693, -2.0643405914306641, -2.2009344100952148, -1.309670090675354, -1.0696308612823486, -0.81162595748901367, -0.86777925491333008, -0.35621044039726257, 0.29672151803970337, -0.26886385679244995, 0.38074463605880737, 0.26185542345046997, -0.16817192733287811, -0.6337091326713562, 0.42668849229812622, 0.55348449945449829, 0.16244499385356903, 0.030560623854398727, -0.8095049262046814, -1.0486299991607666, -1.0228642225265503, -0.80732178688049316, -0.89431363344192505, -0.7990078330039978, -0.69762563705444336, -0.93963170051574707, -0.73097175359725952, -0.9180033802986145, -0.73506748676300049, -0.63425463438034058, -0.56162875890731812, -0.77153515815734863, -0.57375496625900269, -0.49993705749511719, -0.85070043802261353, -0.66044491529464722, -0.57416504621505737, -0.61992615461349487, -0.62376004457473755, -0.56967747211456299, -0.54753708839416504, -0.62816870212554932, -0.70905190706253052, -0.58218884468078613, -0.76900631189346313, -0.60727643966674805, -0.68263506889343262, -0.7098534107208252, 
  -0.10344893485307693, -0.0012788323219865561, -0.039550114423036575, 0.074474118649959564, -0.13176175951957703, -0.15433162450790405, -0.072757340967655182, -0.077638529241085052, -0.086000785231590271, 0.11803152412176132, -0.0053612091578543186, -0.040470387786626816, -0.079659402370452881, 0.085272252559661865, 0.0026931776665151119, 0.056356567889451981, 0.092488467693328857, 0.0999440997838974, -0.17004618048667908, 0.024085389450192451, -0.18550261855125427, -0.079182960093021393, -0.11323755234479904, 0.11321111768484116, -0.13118310272693634, -0.045339025557041168, -0.16941677033901215, 0.095093145966529846, 0.024831412360072136, 0.11908907443284988, -0.048216342926025391, 0.081706948578357697, -0.038584694266319275, -0.11646712571382523, 0.08269026130437851, -0.13383987545967102, 0.12147989124059677, -0.13907770812511444, -0.06268639862537384, -0.14120601117610931, 0.0006106160581111908, -0.097532898187637329, -0.088482894003391266, -0.11084861308336258, -0.16604091227054596, 0.04780123382806778, 0.040120042860507965, 0.05936504527926445, -0.10146693885326385, 0.10734155029058456, -0.0010099624050781131, 0.054550454020500183, -0.080853983759880066, 0.0082909557968378067, -0.04596797376871109, -0.020297536626458168, -0.088118046522140503, 0.13353459537029266, -0.063481278717517853, -0.1821100115776062, 0.032534144818782806, -0.14838944375514984, -0.10338385403156281, -0.12631857395172119, 0.056244965642690659, -0.031221484765410423, -0.18278041481971741, 0.12786883115768433, -0.041984174400568008, 0.019523179158568382, -0.02150796540081501, 0.033781595528125763, 0.029035098850727081, -0.13011987507343292, 0.024065183475613594, 0.066449090838432312, -0.12290041148662567, -0.045260637998580933, -0.17866428196430206, -0.018749812617897987, -0.11740449815988541, -0.078955590724945068, 0.10560475289821625, -0.073451615869998932, -0.11420720815658569, 0.061288837343454361, -0.17862771451473236, -0.17473562061786652, -0.035701017826795578, -0.12988516688346863, -0.090743318200111389, 0.098645918071269989, 0.073825016617774963, -0.12404988706111908, 0.067163795232772827, -0.03547334298491478, 0.047905590385198593, -0.10224759578704834, -0.18041342496871948, -0.032115649431943893, 0.093690082430839539, -0.17632834613323212, 0.098222218453884125, -0.17996157705783844, -0.1451583206653595, -0.10147176682949066, -0.070788569748401642, -0.061653401702642441, 0.10168338567018509, 0.092944048345088959, -0.097054988145828247, -0.081403076648712158, 0.11669266223907471, -0.083748385310173035, -0.1377967894077301, 0.097845040261745453, -0.11080215126276016, 0.066650979220867157, 0.060151230543851852, -0.1369609534740448, -0.0014742586063221097, -0.096666760742664337, 0.074222169816493988, -0.095129884779453278, -0.037567794322967529, -0.0029521526303142309, -0.0077830813825130463, -0.090027660131454468, -0.071952968835830688, -0.11471624672412872, 0.0021775113418698311, 0.10268421471118927, 0.1341056227684021, -0.091764532029628754, -0.056079491972923279, 0.086073592305183411, 0.051044285297393799, 0.01705554872751236, 0.060245133936405182, -0.16613855957984924, 0.092409811913967133, -0.024528447538614273, -0.086836278438568115, -0.10730648040771484, -0.16775068640708923, 0.014993810094892979, 0.12426526844501495, -0.00067718129139393568, -0.03249693289399147, 0.10909271240234375, -0.14958807826042175, -0.16944774985313416, -0.18967196345329285, -0.13727465271949768, -0.021351348608732224, -0.12266340106725693, 0.12329629063606262, 0.057584326714277267, 0.13111251592636108, -0.11017124354839325, -0.10867119580507278, 0.057001225650310516, 0.13911892473697662, 0.10547155141830444, 0.0057925516739487648, -0.041678108274936676, -0.13885621726512909, -0.068665169179439545, -0.029322892427444458, -0.066418059170246124, -0.10079542547464371, -0.10951473563909531, -0.14911077916622162, 0.097150757908821106, -0.088725969195365906, 0.010761022567749023, 0.032790824770927429, 0.13967187702655792, 0.10680778324604034, -0.062023952603340149, 0.086098954081535339, 0.068153157830238342, -0.15543848276138306, 0.14740712940692902, 0.056030020117759705, 
  -0.065736591815948486, -0.072875387966632843, 0.01954125240445137, 0.033291369676589966, -0.030380668118596077, -0.10450614243745804, -0.22415320575237274, 0.11341409385204315, -0.08254145085811615, -0.1192997619509697, -0.21593984961509705, -0.082242861390113831, -0.15150699019432068, 0.052951756864786148, -0.098052911460399628, -0.13241592049598694, -0.027617098763585091, -0.020874869078397751, -0.0011510045733302832, 0.074721015989780426, -0.20908327400684357, -0.04608466848731041, 0.07014697790145874, 0.028038885444402695, -0.17889700829982758, 0.046181965619325638, -0.22492587566375732, -0.16564314067363739, -0.28631490468978882, -0.23760086297988892, 0.041686106473207474, 0.023392263799905777, -0.21454316377639771, -0.26193720102310181, -0.2727716863155365, -0.065781213343143463, 0.00049655180191621184, -0.15860641002655029, -0.1683938205242157, -0.095090270042419434, 0.039384160190820694, -0.11993400752544403, -0.062870383262634277, 0.0080970749258995056, -0.1580914705991745, 0.041281525045633316, -0.22887764871120453, -0.020131699740886688, -0.10716553032398224, 0.082947388291358948, -0.12873640656471252, -0.13295146822929382, -0.026381911709904671, 0.07541472464799881, -0.17384789884090424, -0.059927027672529221, -0.038809880614280701, 0.10673563927412033, -0.078775450587272644, 0.03552047535777092, -0.13597920536994934, -0.059025906026363373, -0.21632340550422668, -0.18851223587989807, -0.086876735091209412, -0.15871752798557281, 0.099918127059936523, 0.096468277275562286, -0.0028823916800320148, -0.2013990581035614, -0.16157166659832001, 0.058951001614332199, -0.0085258437320590019, 0.037400271743535995, -0.17298507690429688, -0.061780408024787903, -0.18791972100734711, 0.086913354694843292, 0.01526530459523201, 0.01017835084348917, 0.00068666005972772837, -0.042164277285337448, 0.0041440422646701336, -0.11066187173128128, 0.035572167485952377, 0.010375025682151318, 0.066983632743358612, -0.086340807378292084, -0.16241669654846191, -0.11945157498121262, -0.10077223926782608, 0.086590871214866638, 0.0099298898130655289, -0.057686522603034973, -0.10030406713485718, -0.16695640981197357, 0.064232803881168365, -0.11051999777555466, 0.010737905278801918, -0.14548557996749878, -0.11582703143358231, 0.0085616931319236755, -0.086981639266014099, -0.24391360580921173, -0.057170331478118896, -0.1770520955324173, -0.074669376015663147, -0.10483091324567795, -0.12527067959308624, 0.043773408979177475, -0.017265435308218002, 0.12006005644798279, 0.050332736223936081, -0.080095544457435608, -0.026901392266154289, -0.023742616176605225, -0.1058788076043129, -0.14035584032535553, -0.09167904406785965, -0.025055121630430222, -0.039163153618574142, -0.037559598684310913, -0.21800418198108673, -0.132093146443367, 0.076408028602600098, -0.15775243937969208, 0.04194091260433197, -0.17494390904903412, 0.040747523307800293, 0.096993297338485718, -0.12621133029460907, -0.011766882613301277, -0.10049439966678619, 0.053473126143217087, -0.060056090354919434, -0.10428966581821442, -0.021715017035603523, -0.19574554264545441, 0.0014888371806591749, -0.11320092529058456, -0.10514130443334579, -0.24931488931179047, -0.2194807380437851, -0.06387733668088913, -0.00036778301000595093, 0.007952534593641758, -0.2463189959526062, -0.12420766800642014, -0.2679559588432312, -0.098996579647064209, -0.052649274468421936, -0.044430725276470184, -0.23310472071170807, -0.034369576722383499, -0.21600733697414398, -0.10736729204654694, -0.019195767119526863, 0.026370422914624214, -0.17878551781177521, -0.066093727946281433, -0.10955257713794708, -0.052537333220243454, 0.029142020270228386, 0.029520068317651749, -0.22201833128929138, -0.23616564273834229, -0.27337765693664551, -0.088164307177066803, -0.080884911119937897, -0.14102701842784882, -0.25168687105178833, -0.1084158793091774, -0.069271519780158997, -0.062717154622077942, 0.012399819679558277, 0.095973126590251923, -0.12306135147809982, 0.015559587627649307, -0.086310356855392456, -0.13219299912452698, 0.12028004974126816, 0.077898561954498291, 0.077707663178443909, 0.1097373366355896, 0.028835069388151169, 
  0.93374204635620117, -0.083616271615028381, -0.78675484657287598, -1.1944866180419922, 1.1112442016601562, 1.0902987718582153, -0.45522859692573547, -0.057268079370260239, -0.61199527978897095, -0.81434118747711182, -0.58967620134353638, -0.14061546325683594, -0.57535636425018311, -0.81944912672042847, -0.55508220195770264, -0.33842229843139648, 0.1293744295835495, 0.42277169227600098, 0.66255587339401245, 0.66020512580871582, 0.16303147375583649, 0.46435663104057312, 0.70054900646209717, 0.34107440710067749, -0.026893312111496925, -0.27080997824668884, -0.00017587379261385649, -0.032239291816949844, -0.64910900592803955, -0.47639834880828857, -0.76565742492675781, -0.60599279403686523, -0.30432003736495972, -0.067897491157054901, -0.17767916619777679, 0.38125866651535034, 0.16051095724105835, 0.45027762651443481, 0.63314515352249146, 0.66383624076843262, 0.4327702522277832, -0.1758943498134613, -0.44593849778175354, -0.10281886905431747, -0.83598685264587402, -0.38725724816322327, -0.42918774485588074, -0.25204935669898987, -0.67824888229370117, -0.85385739803314209, -0.74221652746200562, -0.69336038827896118, -0.59824287891387939, -0.36330431699752808, -0.83388262987136841, -1.2818580865859985, -1.5130501985549927, -0.57625108957290649, -0.81260889768600464, -0.046884439885616302, 0.20704153180122375, 0.95405584573745728, 0.88800376653671265, 0.94079023599624634, 0.43016925454139709, 0.30637001991271973, 1.0690498352050781, 1.0332062244415283, 0.87486076354980469, 0.45436406135559082, 0.94730633497238159, 0.47108897566795349, 0.48489415645599365, 0.39152821898460388, 0.69386565685272217, 0.91670268774032593, 0.35002803802490234, -0.070611625909805298, -0.76738959550857544, -0.93118745088577271, -1.5321164131164551, -1.5315977334976196, -1.1585344076156616, -0.41712042689323425, -0.22750997543334961, 0.22917036712169647, 0.38696768879890442, 1.055682897567749, 0.54683095216751099, 1.3778978586196899, 1.8044253587722778, 1.2001914978027344, 1.0134776830673218, 0.64818280935287476, 0.099257118999958038, -0.79011225700378418, -1.5870174169540405, -0.97606533765792847, -1.8391931056976318, -2.3464751243591309, -1.9193964004516602, -1.8073946237564087, -1.0933289527893066, -0.26895773410797119, -0.016708061099052429, -0.061262410134077072, 0.056813564151525497, 0.4745100736618042, 0.55762571096420288, 0.65675538778305054, 0.51486110687255859, 0.4035128653049469, 0.97247582674026489, 0.81950920820236206, 1.0002912282943726, 0.54718106985092163, 0.62734031677246094, 0.2960129976272583, 0.28108781576156616, 0.55403351783752441, 0.37492883205413818, 0.32905569672584534, -0.89756906032562256, -1.4911134243011475, -1.5718728303909302, -0.76900500059127808, -0.85840260982513428, -1.1586999893188477, -0.9483911395072937, -0.89048087596893311, -0.82441937923431396, -0.31499636173248291, 0.75535672903060913, 1.5641680955886841, 1.0829024314880371, 0.86677414178848267, 1.1245995759963989, 1.8183689117431641, 1.3698422908782959, 1.3061314821243286, 1.0163226127624512, -0.5083545446395874, -1.0184093713760376, -2.0557377338409424, -2.2962028980255127, -2.1069977283477783, -1.4153904914855957, -1.0381923913955688, -1.2092903852462769, -1.1274518966674805, -0.054767142981290817, -0.33842426538467407, -0.36070945858955383, -0.37607383728027344, 0.34345319867134094, 0.49355044960975647, 0.33282458782196045, 0.51827001571655273, 0.500113844871521, 0.71125441789627075, 1.2639307975769043, 1.1742448806762695, 0.96343225240707397, 0.5567207932472229, -0.0114196902140975, 0.35966628789901733, -0.29274237155914307, -0.30917221307754517, -0.73158729076385498, -0.63738662004470825, -0.62978893518447876, -0.51551145315170288, -0.77137559652328491, -0.88114023208618164, -0.5464179515838623, -0.45462194085121155, -0.3728032112121582, -0.32944786548614502, -0.30136904120445251, 0.0010681682033464313, 0.045978657901287079, 0.40339797735214233, 0.39609578251838684, 0.34797877073287964, 0.31323727965354919, 
  -3.1571261882781982, -0.83931249380111694, 0.31334200501441956, -0.40888676047325134, 0.11098106950521469, -1.4733291864395142, -3.5521323680877686, -2.7090904712677002, -1.0135014057159424, -0.747322678565979, -0.72180169820785522, -0.27060121297836304, 0.81377732753753662, 1.6378748416900635, 1.3153887987136841, 1.2460354566574097, 1.1257498264312744, 1.1203813552856445, 0.72063833475112915, 0.51880437135696411, 0.21404184401035309, -0.044138498604297638, -0.021251978352665901, -0.12046457082033157, -0.12891164422035217, -0.084289982914924622, 0.051841821521520615, 0.018886083737015724, -0.29404997825622559, -0.0055278325453400612, 0.14792612195014954, 0.20072285830974579, 0.73008579015731812, 0.99026960134506226, 1.3749576807022095, 1.6658216714859009, 1.6594886779785156, 1.634426474571228, 1.3038287162780762, 1.0133789777755737, 0.81924325227737427, 0.60472649335861206, 0.20085921883583069, 0.55006885528564453, 0.62707024812698364, 0.54222637414932251, 0.34632301330566406, 0.45467561483383179, 0.04164326936006546, 0.30563655495643616, -0.16297224164009094, -0.22438071668148041, -0.47916936874389648, -0.39157047867774963, -0.1725521981716156, 0.075056545436382294, 0.27494886517524719, 0.73138594627380371, 0.0081048943102359772, -0.48368203639984131, -0.56398910284042358, -0.35570812225341797, -0.42107859253883362, -0.62671786546707153, -0.38801681995391846, -0.3001287579536438, -0.77470016479492188, -0.60483336448669434, -0.13012346625328064, 0.11206785589456558, -1.1851681470870972, -0.58945399522781372, -0.24922110140323639, 0.0061774170026183128, 0.20163790881633759, 0.1105383038520813, 0.084891937673091888, -0.16989478468894958, -0.26225486397743225, -0.37615922093391418, -0.10857869684696198, -0.35720881819725037, -0.44136017560958862, -0.50709980726242065, 0.033119987696409225, 0.12388462573289871, 0.25877222418785095, 0.34841251373291016, 0.26071983575820923, -0.29579555988311768, -0.042172100394964218, -0.25751325488090515, 0.3045409619808197, 0.18115048110485077, -0.4231724739074707, -0.27482122182846069, 0.23439797759056091, 0.025866983458399773, 0.4397718608379364, 0.53094577789306641, 0.2142128050327301, 0.3869592547416687, 0.50825482606887817, 0.388060063123703, 0.29235094785690308, 0.79808628559112549, 0.14578768610954285, 0.69187694787979126, 0.31435054540634155, 0.44964337348937988, 0.17988435924053192, -0.20867028832435608, -0.16614201664924622, 0.57551038265228271, -0.38596093654632568, -0.61156034469604492, -0.5393441915512085, -0.72184526920318604, -0.46724128723144531, -0.19597300887107849, -0.25862520933151245, -0.35498461127281189, 0.12254539132118225, 0.2081676721572876, 0.10938279330730438, 0.15224488079547882, -0.20224593579769135, -0.29891616106033325, -0.098691433668136597, -0.11437460780143738, -0.18425780534744263, -0.04815465584397316, 0.39327779412269592, 0.29152408242225647, -0.081952489912509918, 0.59723359346389771, 0.32271280884742737, 0.026959199458360672, -0.71904641389846802, -0.31684985756874084, -0.23242968320846558, 0.1191379502415657, 0.44994059205055237, 0.37228628993034363, 0.081602320075035095, -0.07533707469701767, -0.70531964302062988, -0.099708996713161469, 0.063644438982009888, 0.32606568932533264, 0.12682555615901947, 0.47222048044204712, 0.17799796164035797, 0.40097784996032715, -0.44597673416137695, 0.28540730476379395, -0.37563058733940125, -0.32523873448371887, 0.057676229625940323, -0.34057894349098206, 0.3839852511882782, 0.29549777507781982, 0.42130526900291443, 0.14486877620220184, 0.32557183504104614, 0.34046328067779541, 0.59357154369354248, 0.092947833240032196, -0.2387884110212326, -0.38591715693473816, -0.52011960744857788, -0.33676451444625854, -0.34434455633163452, -0.099523350596427917, 0.49320387840270996, 0.52791821956634521, 0.40744903683662415, -0.058621179312467575, 0.18977466225624084, 0.65796613693237305, 0.81082278490066528, -0.090280771255493164, -0.46188318729400635, -0.0088102146983146667, 0.39402148127555847, 
  -1.5378233194351196, 1.7811988592147827, 4.3665900230407715, 0.39178299903869629, 0.16503408551216125, 1.7624729871749878, 2.4388096332550049, 2.1646625995635986, 2.0991535186767578, 1.3852787017822266, 1.0860364437103271, 1.1665987968444824, 0.50546777248382568, -0.40365356206893921, -0.52307754755020142, -0.69089114665985107, -0.64682841300964355, -1.0129573345184326, -0.89307868480682373, -1.2273025512695312, -0.82242202758789062, -1.2790443897247314, -1.0812840461730957, -1.2469906806945801, -0.67425823211669922, -0.91407936811447144, -0.63347017765045166, -0.48614564538002014, -0.34737756848335266, -0.11039837449789047, 0.018944879993796349, -0.20378237962722778, 0.097186096012592316, -0.12221353501081467, 0.2065756767988205, 0.18383598327636719, 0.51557213068008423, 0.78194838762283325, 0.66821169853210449, 0.91538995504379272, 0.25350213050842285, 0.34558665752410889, 0.48726031184196472, 0.46655416488647461, 0.64834809303283691, 0.3691093921661377, 0.62919241189956665, 0.17397402226924896, 0.14441996812820435, -0.12669821083545685, -0.062937043607234955, -0.23430375754833221, 0.078716970980167389, 0.2514241635799408, 0.032045088708400726, -0.20721101760864258, 0.11611659079790115, 0.054237887263298035, 0.062114182859659195, -0.18778166174888611, 0.031780999153852463, 0.006302480585873127, 0.2638152539730072, 0.25876358151435852, 0.27130162715911865, 0.48927545547485352, 0.62708330154418945, 0.49513769149780273, 0.28367120027542114, 0.32134166359901428, 0.47525531053543091, 0.5862763524055481, 0.67241615056991577, 0.2431740015745163, 0.52019447088241577, 0.48564213514328003, 0.7545737624168396, 0.10310102254152298, 0.31854820251464844, -0.35266587138175964, 0.30389785766601562, -0.42113068699836731, 0.27135324478149414, 0.27200880646705627, 0.34643429517745972, 0.49845656752586365, -0.3164098858833313, -0.43882688879966736, 0.10413432866334915, 0.071883060038089752, -0.35569295287132263, -0.24469923973083496, -0.083202317357063293, -0.54437518119812012, -0.70010477304458618, -0.63953924179077148, -0.59157758951187134, -0.37735113501548767, -0.22987200319766998, -0.8435136079788208, -0.50537669658660889, -0.38655528426170349, 0.078042760491371155, -0.26209983229637146, -0.49285206198692322, -0.45457684993743896, -0.27281045913696289, -0.090411759912967682, 0.12325449287891388, -0.079401858150959015, -0.13168178498744965, -0.36895298957824707, -0.041286461055278778, 0.086577698588371277, 0.096970729529857635, 0.23764285445213318, -0.32821947336196899, 0.025396699085831642, 0.1882251650094986, -0.10145040601491928, -0.28893247246742249, 0.11029773950576782, 0.39070874452590942, -0.061109986156225204, -0.24750997126102448, 0.15553343296051025, -0.33755025267601013, 0.33398476243019104, 0.016842680051922798, 0.31390246748924255, -0.092428319156169891, 0.40634861588478088, -0.097283877432346344, 0.34187036752700806, 0.068910636007785797, 0.4440281093120575, 0.61307042837142944, -0.60791248083114624, -0.061179056763648987, -0.19667162001132965, -0.18390142917633057, -0.15604110062122345, 0.26004704833030701, -0.032273765653371811, 0.0029747774824500084, -0.10566338896751404, 0.054370928555727005, 0.66373926401138306, 0.20003843307495117, 0.3300803005695343, 0.026617430150508881, 0.37716642022132874, 0.39725404977798462, -0.091069206595420837, -0.06287461519241333, -0.1018793061375618, -0.53450632095336914, -0.33533632755279541, -0.56229591369628906, 0.58986270427703857, 0.30642616748809814, 0.097224369645118713, -0.10125215351581573, -0.034410052001476288, -0.093641981482505798, 0.37880688905715942, -0.13253581523895264, -0.44241815805435181, -0.061459321528673172, 0.2479778528213501, -0.048841938376426697, 0.31309962272644043, 0.102525994181633, -0.47407671809196472, 0.43303975462913513, 0.29005593061447144, 0.01649775542318821, -0.072955504059791565, 0.3342139720916748, 0.34689131379127502, 0.4077155590057373, 0.16832210123538971, -0.685219407081604, -0.79477059841156006, -0.9362027645111084, 
  -0.081334002315998077, -0.19027130305767059, -0.096431128680706024, 0.12986382842063904, 0.13828949630260468, 0.028525661677122116, -0.16171799600124359, 0.0063411551527678967, 0.032347820699214935, -0.029331773519515991, -0.15909780561923981, 0.066177897155284882, -0.076709955930709839, -0.17930261790752411, -0.13091270625591278, -0.13923323154449463, -0.038583498448133469, -0.085279949009418488, -0.032566741108894348, -0.063288964331150055, -0.039314195513725281, 0.072623282670974731, -0.17220939695835114, -0.052129440009593964, 0.10859748721122742, -0.19271166622638702, -0.12239768356084824, 0.062023218721151352, -0.11167097836732864, -0.13879182934761047, -0.15193688869476318, 0.055419921875, -0.023551985621452332, -0.11477159708738327, 0.058870255947113037, 0.080851107835769653, -0.19481365382671356, -0.077554143965244293, -0.1051449254155159, -0.17861978709697723, -0.082967057824134827, -0.20410734415054321, 0.041594438254833221, 0.10696947574615479, -0.12277642637491226, 0.056719794869422913, -0.077576898038387299, -0.10027749091386795, -0.12483028322458267, -0.048444166779518127, -0.1820591539144516, -0.18900607526302338, 0.027825469151139259, -0.020427864044904709, -0.053923554718494415, -0.0042368411086499691, 0.090358905494213104, 0.10568244755268097, 0.045116931200027466, -0.06224045529961586, 0.019992435351014137, -0.17713117599487305, -0.014244626276195049, 0.093268729746341705, -0.14346235990524292, -0.14372245967388153, -0.21487061679363251, -0.079534798860549927, 0.019571196287870407, -0.06402270495891571, 0.077668674290180206, 0.08992469310760498, -0.0077697443775832653, -0.14135892689228058, -0.13330130279064178, -0.13071581721305847, -0.1200377494096756, 0.03471081331372261, -0.0029120172839611769, -0.10385078936815262, 0.12286094576120377, -0.11957339197397232, 0.054006360471248627, -0.05460110679268837, 0.094471953809261322, 0.10584083944559097, -0.0011487040901556611, -0.16977635025978088, -0.048444196581840515, -0.12350977957248688, 0.055527228862047195, 0.12171494960784912, -0.091742664575576782, 0.12169098854064941, 0.0075648026540875435, -0.19416646659374237, 0.11119654029607773, 0.075492419302463531, -0.050711173564195633, -0.045957077294588089, -0.15695942938327789, 0.042228575795888901, -0.16064912080764771, 0.014731362462043762, -0.09027949720621109, 0.13100169599056244, 0.029525119811296463, 0.062879391014575958, 0.038803249597549438, 0.037237841635942459, 0.030414344742894173, 0.1569332480430603, -0.086669236421585083, -0.078352354466915131, -0.10287924855947495, -0.11536041647195816, 0.15638591349124908, 0.076312355697154999, 0.078084580600261688, 0.14116504788398743, -0.014217423275113106, 0.015211291611194611, -0.096716463565826416, -0.030835982412099838, -0.017987892031669617, -0.028598267585039139, -0.13472743332386017, -0.12082149833440781, 0.024606537073850632, -0.0795864537358284, 0.051100954413414001, -0.018601745367050171, -0.027585418894886971, -0.13800345361232758, -0.16208635270595551, -0.10429028421640396, 0.075175255537033081, -0.16249708831310272, 0.12296301871538162, -0.10522274672985077, -0.13824042677879333, -0.035151239484548569, -0.071302652359008789, 0.15527193248271942, 0.11975930631160736, 0.096138790249824524, -0.086857117712497711, 0.0089878588914871216, -0.13594086468219757, -0.07512219250202179, 0.15762452781200409, 0.080992624163627625, -0.017499670386314392, 0.1156175285577774, 0.057901695370674133, 0.15305851399898529, -0.055502630770206451, 0.012548476457595825, 0.11441807448863983, -0.16064015030860901, -0.1483173668384552, 0.14681790769100189, -0.16453120112419128, 0.13526158034801483, -0.071988150477409363, -0.013436168432235718, -0.012899696826934814, 0.14293690025806427, -0.14034596085548401, -0.13672634959220886, 0.1040598601102829, 0.042660146951675415, 0.10519663989543915, -0.064294606447219849, -0.067820020020008087, -0.028615310788154602, -0.019676998257637024, 0.048134654760360718, 0.08402271568775177, -0.13568036258220673, 0.050351500511169434, 0.034459188580513, -0.045507825911045074, 0.14242960512638092, 0.13421149551868439, 
  0.31265118718147278, 0.47517049312591553, 0.42082884907722473, -0.78437525033950806, 1.1765146255493164, 0.70253723859786987, -0.22891981899738312, -0.60320895910263062, -0.18542622029781342, -0.46621373295783997, -0.61128807067871094, -1.0002974271774292, -0.29419681429862976, 0.097951516509056091, -0.6994585394859314, -0.34198269248008728, -0.29604694247245789, -0.38335233926773071, 0.34306907653808594, -0.28950890898704529, -0.026519699022173882, 0.11842970550060272, 0.1121450737118721, -0.4410642683506012, 0.10179996490478516, -1.2833718061447144, -0.51962333917617798, -0.58912914991378784, -0.44526314735412598, -0.036808554083108902, -0.062183119356632233, 0.34480038285255432, 0.38243699073791504, 0.93590408563613892, 0.31452926993370056, -0.2159605473279953, 0.18064112961292267, -0.042508989572525024, -0.35184073448181152, -0.76616078615188599, -0.28916043043136597, -0.38220381736755371, -0.29407835006713867, -0.2485758513212204, -0.32687532901763916, -0.011736147105693817, -0.56441539525985718, -0.35884955525398254, -0.35584405064582825, -0.29296284914016724, -0.69921672344207764, -0.86006015539169312, -0.85110574960708618, -1.1022293567657471, -1.1381257772445679, -0.92779052257537842, -0.96870487928390503, -0.54780173301696777, -0.15001930296421051, 0.067141689360141754, 0.83742552995681763, 0.19732248783111572, -0.018616935238242149, 0.80841481685638428, 0.17396023869514465, -0.77111345529556274, -0.680125892162323, -0.22625710070133209, -0.076754197478294373, -0.34289440512657166, -0.76652544736862183, -0.89608001708984375, -1.0809249877929688, -1.9314234256744385, -2.0954229831695557, -1.9116024971008301, -1.0257763862609863, -0.031830251216888428, 0.67682135105133057, 0.53235447406768799, 0.90075182914733887, 1.2695969343185425, 1.1803025007247925, 1.3575664758682251, 1.6876558065414429, 1.9537012577056885, 1.6218316555023193, 1.8883050680160522, 1.1448905467987061, 1.2455431222915649, -0.57135915756225586, -2.0913586616516113, -1.0252361297607422, -1.6203523874282837, -1.4340744018554688, -0.61524814367294312, -0.83179205656051636, 0.26073229312896729, 0.31857863068580627, -0.1170240119099617, -0.77547681331634521, -0.57717609405517578, 0.051621846854686737, 0.78024697303771973, 0.12253616005182266, -0.095131635665893555, -0.085586078464984894, 0.081418357789516449, -0.52728915214538574, -0.55433386564254761, -0.70048701763153076, 0.40208682417869568, 0.39403694868087769, -0.049207724630832672, -0.10685142874717712, 0.036764472723007202, 0.2243838757276535, 0.2440258115530014, 0.50797891616821289, 0.1314990222454071, -0.16777230799198151, 0.69869911670684814, 0.62155640125274658, 0.68573397397994995, 0.82108861207962036, 1.4654420614242554, 0.59298336505889893, -0.30624288320541382, -1.1164754629135132, -1.4226553440093994, -1.6316853761672974, -1.4928027391433716, -1.608573317527771, -1.23540198802948, -0.90809226036071777, -0.54661542177200317, -0.59498012065887451, -0.231106236577034, 0.31550747156143188, -0.14170785248279572, -0.019112223759293556, 0.38354054093360901, -0.027388559654355049, 0.20971298217773438, 0.70851790904998779, 1.6037445068359375, 1.5792731046676636, 1.2200106382369995, 0.97818511724472046, 1.2300992012023926, 0.48032456636428833, 0.28111070394515991, 1.0738676786422729, -0.033038333058357239, -0.99112057685852051, -0.93016678094863892, -1.0320172309875488, -0.85507112741470337, -0.67086923122406006, -0.12040109187364578, 0.59019947052001953, 0.023390008136630058, 0.09284847229719162, 0.154460608959198, 0.3863881528377533, 0.068891189992427826, -0.65783017873764038, -0.62937325239181519, -0.39046117663383484, -0.26726844906806946, 0.036813367158174515, 0.096846029162406921, -0.58624136447906494, -0.37402179837226868, -0.14705787599086761, -0.14761897921562195, 0.41918891668319702, 0.71455085277557373, 1.0066547393798828, 0.85664325952529907, 0.78296273946762085, 0.52780413627624512, 0.52863091230392456, -0.37230256199836731, -0.060566321015357971, 
  -1.6307520866394043, 0.8928457498550415, -2.4662277698516846, -4.6936359405517578, -1.3999631404876709, -0.82900309562683105, -0.49560141563415527, 0.13096880912780762, 1.0012574195861816, 0.29229462146759033, -0.036433856934309006, 0.13286726176738739, 0.74674737453460693, 1.9132695198059082, 1.5463622808456421, 1.3541439771652222, 1.1753096580505371, 1.0429702997207642, 0.68131095170974731, 0.78258079290390015, 0.65583151578903198, 0.67955851554870605, 0.71733838319778442, 0.27495846152305603, 0.12704542279243469, 0.18871012330055237, 0.17935791611671448, 0.16560535132884979, 0.064103178679943085, 0.11531253159046173, 0.4517054557800293, 0.54039955139160156, 0.58261948823928833, 0.85049772262573242, 0.79351013898849487, 0.37878698110580444, -0.21772371232509613, -0.5514296293258667, -1.1241151094436646, -1.1910983324050903, -1.0494457483291626, -0.64103436470031738, -1.0585052967071533, -0.92189401388168335, -0.35307186841964722, -0.23910278081893921, -0.26199758052825928, -0.40615779161453247, -0.29980000853538513, 0.15319612622261047, 0.52896863222122192, 0.43446135520935059, 0.7662385106086731, 0.69441920518875122, 0.56536489725112915, 0.55473029613494873, 0.40580391883850098, -0.13582487404346466, -0.27501344680786133, -1.0525023937225342, -1.0941885709762573, -0.36015453934669495, 0.41488334536552429, 0.56128442287445068, 0.30047202110290527, 0.5901067852973938, 0.66875702142715454, 0.6527702808380127, 0.48385778069496155, 0.35033926367759705, 0.30324384570121765, 0.17205709218978882, 0.44326263666152954, 0.29647031426429749, 0.10340719670057297, 0.25378462672233582, -0.041380509734153748, 0.11102774739265442, 0.075325757265090942, -0.20278453826904297, -0.74592345952987671, -0.58834367990493774, 0.099647969007492065, 0.51912331581115723, 0.20088107883930206, 0.23961547017097473, 0.61231964826583862, 0.47651579976081848, 0.48332521319389343, -0.018234493210911751, 0.49965304136276245, 0.65714782476425171, -0.063022792339324951, -1.5687379837036133, -3.0075857639312744, -2.6521034240722656, -1.8041322231292725, -1.1531637907028198, -1.3106133937835693, -0.6029779314994812, -0.60824042558670044, -0.181026890873909, -0.84704256057739258, -1.3786128759384155, -0.99462687969207764, -1.2836103439331055, -0.13931210339069366, -0.66479301452636719, -0.45777043700218201, -0.2346806675195694, -0.26102405786514282, -0.30618295073509216, -0.064517907798290253, 0.56025242805480957, 0.80420792102813721, 0.081469669938087463, 0.50445890426635742, 0.66460973024368286, 0.28182503581047058, 0.95875692367553711, 0.83446305990219116, 0.33728682994842529, 0.88086354732513428, 0.49530017375946045, 0.59133011102676392, 0.18658089637756348, 0.85833984613418579, 0.56277066469192505, -0.41924518346786499, -0.078510589897632599, 0.53689610958099365, 0.12433073669672012, -0.21928100287914276, -0.065940245985984802, 0.58558285236358643, 0.47319042682647705, -0.64835506677627563, 0.24972157180309296, -0.28905612230300903, -0.35320788621902466, -0.030104683712124825, -0.0083239329978823662, -0.25955954194068909, 0.24881108105182648, -0.28310900926589966, -0.22871190309524536, 0.75013595819473267, 0.17224796116352081, 0.57719069719314575, 0.11624655872583389, -0.262594074010849, 0.048834092915058136, -0.6355549693107605, -0.90137439966201782, -0.28719690442085266, 0.050031978636980057, 0.2894865870475769, -0.67092525959014893, -0.2983822226524353, -0.89699172973632812, -0.37860345840454102, 0.29216998815536499, -0.61813628673553467, -0.56700330972671509, -0.41051852703094482, -0.17391626536846161, -0.11909381300210953, 0.14259354770183563, -0.056726425886154175, -0.0030929611530154943, 0.65708380937576294, 0.44754567742347717, 0.42995074391365051, 0.13069593906402588, -0.064447507262229919, 0.11414888501167297, 0.83053284883499146, 0.6201329231262207, 0.60900962352752686, 1.2566789388656616, 0.90742731094360352, 0.1310155838727951, 0.31768280267715454, -0.016870312392711639, 0.70599186420440674, 
  -1.4467493295669556, -0.50483852624893188, -0.42982620000839233, 0.017485667020082474, -3.0803208351135254, -3.5168685913085938, -1.4839600324630737, -0.0030009662732481956, 1.1333185434341431, 1.3555192947387695, 1.1209098100662231, 1.1297725439071655, 0.77132892608642578, 0.89824843406677246, 0.64211064577102661, 0.18080605566501617, -0.079242885112762451, -0.37286123633384705, -1.1017920970916748, -1.4835171699523926, -1.8403016328811646, -2.1778759956359863, -2.5543713569641113, -2.5138800144195557, -2.3589577674865723, -2.3202731609344482, -1.9518784284591675, -1.2804845571517944, -0.8755003809928894, -0.76257526874542236, -0.027788534760475159, 0.37135660648345947, 0.54893165826797485, 0.28195369243621826, 0.67888253927230835, 0.44303098320960999, 0.06159655749797821, -0.33657896518707275, -0.20572590827941895, -0.20682144165039062, -0.19283865392208099, -0.097595945000648499, -0.24945758283138275, -0.010050231590867043, -0.14870010316371918, -0.50965893268585205, -0.032675974071025848, -0.44536435604095459, -0.17272290587425232, -0.081974901258945465, -0.24209444224834442, 0.11899634450674057, 0.060548122972249985, -0.050203565508127213, 0.12636873126029968, 0.027589211240410805, 0.54669481515884399, 0.59808319807052612, 0.50654053688049316, 0.85617399215698242, 1.2471559047698975, 1.0717653036117554, 0.82966691255569458, 0.43112385272979736, 0.45360261201858521, 0.78337669372558594, 0.75134170055389404, 0.29454666376113892, 0.31022065877914429, 0.5329582691192627, 0.46176999807357788, 0.32913070917129517, 0.44194331765174866, 0.40632390975952148, 0.27341750264167786, 0.44160330295562744, 0.15223594009876251, 0.18262612819671631, 0.53542417287826538, 0.50984364748001099, 0.76108968257904053, 1.1076937913894653, 0.83721756935119629, 0.93367069959640503, 1.1730285882949829, 1.5246373414993286, 1.3542174100875854, 1.2210228443145752, 0.83551394939422607, -0.029181826859712601, 0.20502610504627228, 0.47212004661560059, 0.18351155519485474, 0.47599706053733826, 0.22660885751247406, 0.42195615172386169, 0.086527332663536072, -0.064181536436080933, 0.41163203120231628, -0.31173726916313171, -0.39784619212150574, 0.31530013680458069, -0.073406338691711426, 0.081759847700595856, 0.27681916952133179, 0.10860726237297058, 0.023483315482735634, 0.54870635271072388, 0.68306958675384521, 0.49513396620750427, 0.15115171670913696, 0.28844106197357178, 0.026243139058351517, -0.34978488087654114, -0.60645270347595215, 0.11116287112236023, 0.47506532073020935, 0.41602298617362976, 0.27880111336708069, 0.3528282642364502, 0.40138193964958191, 0.51731270551681519, 0.29253211617469788, -0.12006095796823502, -0.44405493140220642, 0.022538339719176292, -0.22640293836593628, -0.72418200969696045, -0.089076243340969086, -0.57335883378982544, -1.3066419363021851, -1.4012115001678467, -0.49988183379173279, -0.62169325351715088, -0.29177752137184143, -0.27377530932426453, -0.63624817132949829, -0.30324855446815491, 0.076470762491226196, 0.37881314754486084, 0.91180896759033203, -0.95309704542160034, -0.5343548059463501, -0.84277313947677612, -1.3389533758163452, -0.70938235521316528, -0.32326754927635193, -0.036215674132108688, -0.74619543552398682, -2.4364848136901855, -2.1729323863983154, -1.7079870700836182, -1.5615599155426025, -1.6431599855422974, -1.14417564868927, -0.46913528442382812, -0.55520331859588623, -0.33317914605140686, -0.46852216124534607, -0.12091483920812607, -0.018185516819357872, -0.14559750258922577, -0.086679153144359589, -0.11420980095863342, -0.22803491353988647, -0.11826398223638535, -0.44357216358184814, -0.25588667392730713, -0.35038289427757263, -0.33216467499732971, -0.30227890610694885, -0.39772167801856995, -0.28755968809127808, -0.53019773960113525, -0.46484965085983276, -0.54217839241027832, -0.24405097961425781, -0.25059252977371216, -0.18143925070762634, -0.17486068606376648, -0.028441701084375381, 0.087442971765995026, -0.037511464208364487, 0.026020701974630356, 0.074060544371604919, 
  2.2666933536529541, -1.3153085708618164, 0.38506424427032471, 0.920573890209198, 0.72233855724334717, 2.4108269214630127, 2.6499593257904053, 2.7117338180541992, 2.0209081172943115, 1.1343245506286621, 0.36050811409950256, -0.7852441668510437, -1.401105523109436, -1.8927561044692993, -1.3083580732345581, -0.98755043745040894, -1.0126023292541504, -0.79502326250076294, -0.54738342761993408, -0.41394373774528503, 0.033549711108207703, -0.040519025176763535, 0.0283646360039711, 0.16833296418190002, 0.17415522038936615, 0.14386266469955444, 0.2205418199300766, 0.092362530529499054, -0.35799160599708557, 0.066633962094783783, -0.1895831972360611, 0.22080610692501068, 0.318948894739151, 0.54587042331695557, 0.46305555105209351, 1.1082171201705933, 1.1898086071014404, 1.3377879858016968, 1.2364847660064697, 1.1800441741943359, 0.92017084360122681, 1.1213470697402954, 0.98281282186508179, 0.64834100008010864, 0.40914455056190491, 0.64246618747711182, 0.55339545011520386, 0.097014240920543671, -0.13679203391075134, 0.15090069174766541, -0.51181262731552124, -0.43077349662780762, -0.6796756386756897, -0.4244568943977356, -0.50518226623535156, 0.009123937226831913, -0.30452099442481995, -0.45772796869277954, -0.33499172329902649, -0.15340548753738403, -0.79846155643463135, -0.64532572031021118, -0.89284723997116089, -0.71362966299057007, -0.59210896492004395, -0.80411595106124878, -0.72764039039611816, -0.037897307425737381, -0.71927130222320557, -0.43780606985092163, -0.41557040810585022, -0.46305519342422485, -0.61002439260482788, -0.56091427803039551, -0.51024657487869263, -0.48624265193939209, -0.25237515568733215, -0.17204843461513519, 0.060972090810537338, -0.041707538068294525, 0.15012545883655548, -0.24146606028079987, 0.025571616366505623, 0.2877863347530365, 0.40805411338806152, -0.19136658310890198, -0.097057215869426727, -0.23463097214698792, -0.092736303806304932, -0.42393964529037476, -0.41378450393676758, -0.24061541259288788, 0.037996243685483932, -0.44496902823448181, 0.068170301616191864, 0.33655500411987305, 0.25666627287864685, 0.69359737634658813, 0.56385022401809692, 0.39984709024429321, 0.60254991054534912, 0.14090618491172791, 0.33862581849098206, 0.56278109550476074, 0.17917753756046295, -0.03784472867846489, -0.17814098298549652, -0.28648626804351807, 0.37483048439025879, 0.39565899968147278, -0.033173352479934692, -0.0029137842357158661, -0.34326693415641785, -0.21175417304039001, 0.10419461131095886, 0.53197324275970459, -0.16230307519435883, 0.24298669397830963, 0.1377566009759903, 0.58700525760650635, 0.82743895053863525, 0.86131072044372559, 0.77241158485412598, 0.6595463752746582, 0.51359635591506958, 0.29043510556221008, 0.15993878245353699, 0.2050405889749527, -0.13188691437244415, -0.2161322683095932, -0.21850539743900299, 0.16380695998668671, -0.15654143691062927, 0.2119411826133728, -0.11657979339361191, -0.30141398310661316, 0.19411550462245941, 0.0038225273601710796, -0.30044332146644592, -0.44287940859794617, -0.018390713259577751, 0.11030948162078857, -0.024297406896948814, -0.53179144859313965, 0.22919896245002747, 0.51593512296676636, 0.27005672454833984, 0.23589205741882324, -0.60032904148101807, -0.90096396207809448, 0.35149931907653809, -0.075092718005180359, -0.59845715761184692, -0.71680265665054321, -0.52002912759780884, -0.2541888952255249, -1.0119082927703857, 0.31030324101448059, -0.34316965937614441, -0.42002183198928833, -0.3985239565372467, -0.40283608436584473, 0.15332140028476715, 0.65151739120483398, -0.14166580140590668, 0.3089127242565155, -0.35951328277587891, -0.4886212944984436, -0.17829413712024689, -0.59311509132385254, -1.2460867166519165, -0.30303975939750671, -0.30021882057189941, -0.42552462220191956, 0.2550843358039856, 0.28520995378494263, 0.088012218475341797, 0.069069564342498779, 0.25761702656745911, 1.1404569149017334, 0.037797033786773682, -0.33806699514389038, -0.99265289306640625, 0.42285671830177307, -0.95659703016281128, 
